{"learner":{"attributes":{"scikit_learn":"{\"_estimator_type\": \"classifier\"}"},"feature_names":[],"feature_types":[],"gradient_booster":{"model":{"cats":{"enc":[],"feature_segments":[],"sorted_idx":[]},"gbtree_model_param":{"num_parallel_tree":"1","num_trees":"200"},"iteration_indptr":[0,1,2,3,4,5,6,7,8,9,10,11,12,13,14,15,16,17,18,19,20,21,22,23,24,25,26,27,28,29,30,31,32,33,34,35,36,37,38,39,40,41,42,43,44,45,46,47,48,49,50,51,52,53,54,55,56,57,58,59,60,61,62,63,64,65,66,67,68,69,70,71,72,73,74,75,76,77,78,79,80,81,82,83,84,85,86,87,88,89,90,91,92,93,94,95,96,97,98,99,100,101,102,103,104,105,106,107,108,109,110,111,112,113,114,115,116,117,118,119,120,121,122,123,124,125,126,127,128,129,130,131,132,133,134,135,136,137,138,139,140,141,142,143,144,145,146,147,148,149,150,151,152,153,154,155,156,157,158,159,160,161,162,163,164,165,166,167,168,169,170,171,172,173,174,175,176,177,178,179,180,181,182,183,184,185,186,187,188,189,190,191,192,193,194,195,196,197,198,199,200],"tree_info":[0,0,0,0,0,0,0,0,0,0,0,0,0,0,0,0,0,0,0,0,0,0,0,0,0,0,0,0,0,0,0,0,0,0,0,0,0,0,0,0,0,0,0,0,0,0,0,0,0,0,0,0,0,0,0,0,0,0,0,0,0,0,0,0,0,0,0,0,0,0,0,0,0,0,0,0,0,0,0,0,0,0,0,0,0,0,0,0,0,0,0,0,0,0,0,0,0,0,0,0,0,0,0,0,0,0,0,0,0,0,0,0,0,0,0,0,0,0,0,0,0,0,0,0,0,0,0,0,0,0,0,0,0,0,0,0,0,0,0,0,0,0,0,0,0,0,0,0,0,0,0,0,0,0,0,0,0,0,0,0,0,0,0,0,0,0,0,0,0,0,0,0,0,0,0,0,0,0,0,0,0,0,0,0,0,0,0,0,0,0,0,0,0,0,0,0,0,0,0,0],"trees":[{"base_weights":[-2.622327E-3,-1.3850313E0,1.5759756E-1,-2.1037579E0,7.3796886E-1,8.814024E-1,3.5446078E-2,-1.5879742E0,-2.7553077E0,7.5895786E-1,-2.9439318E-1,-2.5843439E-1,8.884647E-1,1.09246336E-1,-4.0601414E-1,-2.66335E0,-9.6527E-1,-3.2567954E0,-2.6492221E0,8.790176E-2,3.1209517E-1,9.076053E-1,5.0337946E-1,1.6599482E-1,-4.283249E-1,-2.5348732E0,1.1611852E-1,-2.0924008E0,-2.8307986E0,-3.863606E-1,-1.1084527E-1,-3.3149296E-1,-7.9044364E-2,-1.8510948E0,-2.7254495E-1,-2.1927261E-1,4.8505552E-2,8.935574E-1,1.23943344E-1,4.5029292E-1,7.175624E-1,-2.720017E-1,1.7466389E-1,-5.411204E-1,6.72581E-1,-2.5891318E0,-2.2386909E-1,1.5116872E-1,-2.185987E0,-3.1899956E-1,-2.0243776E-1,-3.410213E-1,-2.750636E-1,-3.2204E-2,-2.6535186E-1,-2.0289198E-1,-1.2231066E-2,9.235074E-2,1.4489538E-2,4.634863E-2,6.5008113E-3,8.305792E-2,-4.212793E-2,1.8542355E-2,-4.6114158E-2,-2.1573238E-1,-5.3838577E-2,5.2206513E-2,7.900263E-2,-2.599927E-1,-1.6454229E-1,8.465964E-3,1.315908E-1,-2.6873013E-1,-7.005884E-2],"categories":[],"categories_nodes":[],"categories_segments":[],"categories_sizes":[],"default_left":[0,0,0,0,0,0,0,0,0,0,0,0,0,0,0,0,0,0,0,0,0,0,0,0,0,0,0,0,0,0,0,0,0,0,0,0,0,0,0,0,0,0,0,0,0,0,0,0,0,0,0,0,0,0,0,0,0,0,0,0,0,0,0,0,0,0,0,0,0,0,0,0,0,0,0],"id":0,"left_children":[1,3,5,7,9,11,13,15,17,19,-1,-1,21,23,25,27,29,31,33,-1,35,37,39,41,43,45,47,49,51,53,-1,-1,-1,55,-1,-1,-1,57,-1,59,61,-1,63,65,67,69,-1,71,73,-1,-1,-1,-1,-1,-1,-1,-1,-1,-1,-1,-1,-1,-1,-1,-1,-1,-1,-1,-1,-1,-1,-1,-1,-1,-1],"loss_changes":[1.5889266E4,1.137048E4,5.6838657E3,1.8663457E3,1.4792188E2,2.2950146E2,1.7921238E3,2.079609E3,1.2215234E2,1.00336426E2,0E0,0E0,6.783008E1,1.437777E3,8.757758E3,1.0303613E2,1.6292395E2,5.829541E1,1.18725586E2,0E0,1.7379146E2,4.0029297E1,4.6904297E0,1.067006E3,5.5919794E2,1.9141602E1,5.1091827E2,1.3124756E1,3.1418457E1,5.6353413E1,0E0,0E0,0E0,5.5234314E1,0E0,0E0,0E0,1.897793E2,0E0,1.779686E0,1.1405449E1,0E0,2.9084448E2,1.6882568E1,6.988739E0,9.017578E0,0E0,4.827996E2,6.883148E1,0E0,0E0,0E0,0E0,0E0,0E0,0E0,0E0,0E0,0E0,0E0,0E0,0E0,0E0,0E0,0E0,0E0,0E0,0E0,0E0,0E0,0E0,0E0,0E0,0E0,0E0],"parents":[2147483647,0,0,1,1,2,2,3,3,4,4,5,5,6,6,7,7,8,8,9,9,12,12,13,13,14,14,15,15,16,16,17,17,18,18,20,20,21,21,22,22,23,23,24,24,25,25,26,26,27,27,28,28,29,29,33,33,37,37,39,39,40,40,42,42,43,43,44,44,45,45,47,47,48,48],"right_children":[2,4,6,8,10,12,14,16,18,20,-1,-1,22,24,26,28,30,32,34,-1,36,38,40,42,44,46,48,50,52,54,-1,-1,-1,56,-1,-1,-1,58,-1,60,62,-1,64,66,68,70,-1,72,74,-1,-1,-1,-1,-1,-1,-1,-1,-1,-1,-1,-1,-1,-1,-1,-1,-1,-1,-1,-1,-1,-1,-1,-1,-1,-1],"split_conditions":[5E0,1.1E1,1E0,3E0,1.2E1,1E0,3E0,1E0,4E0,1E0,-2.9439318E-1,-2.5843439E-1,6E0,6E0,6E0,1E0,1E0,7E0,1E0,8.790176E-2,4E0,8E0,4E0,1E0,2E0,6E0,1.2E1,3E0,3E0,2E0,-1.1084527E-1,-3.3149296E-1,-7.9044364E-2,4E0,-2.7254495E-1,-2.1927261E-1,4.8505552E-2,2E0,1.23943344E-1,2E0,7E0,-2.720017E-1,2E0,1E0,7E0,5E0,-2.2386909E-1,1.1E1,7E0,-3.1899956E-1,-2.0243776E-1,-3.410213E-1,-2.750636E-1,-3.2204E-2,-2.6535186E-1,-2.0289198E-1,-1.2231066E-2,9.235074E-2,1.4489538E-2,4.634863E-2,6.5008113E-3,8.305792E-2,-4.212793E-2,1.8542355E-2,-4.6114158E-2,-2.1573238E-1,-5.3838577E-2,5.2206513E-2,7.900263E-2,-2.599927E-1,-1.6454229E-1,8.465964E-3,1.315908E-1,-2.6873013E-1,-7.005884E-2],"split_indices":[2,3,4,3,3,3,3,3,2,4,0,0,2,2,3,4,4,3,4,0,2,3,3,3,3,2,3,2,2,3,0,0,0,3,0,0,0,3,0,3,2,0,3,3,2,3,0,3,2,0,0,0,0,0,0,0,0,0,0,0,0,0,0,0,0,0,0,0,0,0,0,0,0,0,0],"split_type":[0,0,0,0,0,0,0,0,0,0,0,0,0,0,0,0,0,0,0,0,0,0,0,0,0,0,0,0,0,0,0,0,0,0,0,0,0,0,0,0,0,0,0,0,0,0,0,0,0,0,0,0,0,0,0,0,0,0,0,0,0,0,0,0,0,0,0,0,0,0,0,0,0,0,0],"sum_hessian":[7.173627E4,7.449849E3,6.4286426E4,5.565648E3,1.8842015E3,9.281712E3,5.5004715E4,3.1083967E3,2.457251E3,1.8743107E3,9.890821E0,1.8133173E1,9.263579E3,4.7127086E4,7.8776274E3,1.1386809E3,1.969716E3,4.238629E2,2.0333881E3,1.4766173E3,3.9769345E2,8.823644E3,4.3993552E2,4.2627793E4,4.4992935E3,1.5507985E3,6.326829E3,2.6128253E2,8.773983E2,3.9130563E2,1.5784103E3,4.1376605E2,1.0096881E1,1.794772E2,1.8539109E3,2.4933113E1,3.7276035E2,8.46881E3,3.5483322E2,3.5503928E2,8.489622E1,1.2672615E2,4.2501066E4,4.0816123E3,4.1768115E2,1.304146E3,2.4665236E2,6.232866E3,9.396281E1,1.2569586E1,2.4871295E2,1.0158698E2,7.7581134E2,3.8162088E2,9.684763E0,1.6258038E2,1.689682E1,8.142825E3,3.25985E2,3.430879E2,1.1951409E1,7.74781E1,7.418116E0,4.1794492E4,7.0657556E2,5.563587E0,4.0760488E3,1.8545291E2,2.3222826E2,1.2876614E3,1.6484703E1,5.8971963E3,3.3566977E2,6.964787E1,2.4314938E1],"tree_param":{"num_deleted":"0","num_feature":"6","num_nodes":"75","size_leaf_vector":"1"}},{"base_weights":[1.510281E-3,3.6956728E-1,-1.796409E0,-1.0814167E0,5.257434E-1,-1.1424037E0,-2.2073667E0,1.6496056E-1,-1.6054186E0,1.1199502E0,4.224526E-1,-9.852382E-1,-1.4906104E0,-1.4442825E0,-2.4631937E0,-2.228521E0,2.8012216E-1,-2.4922667E0,-1.4785984E0,1.1629639E0,1.9941592E-1,4.5743838E-1,-3.0100456E-1,-8.142226E-1,-1.0957451E0,-7.602784E-1,-1.5975345E0,-1.19758084E-1,-2.1416507E0,-2.590865E0,-2.067994E0,-2.6935896E-1,-1.7937939E-1,3.4095603E-1,-1.1595566E0,-2.72091E-1,-2.2264877E-1,-1.4944446E0,-1.029168E0,1.1773682E0,8.8442445E-1,3.9498684E-1,-1.21294074E-1,4.670971E-1,2.1298653E-1,-1.7467007E-1,-5.33115E-1,-2.0583377E0,-7.680732E-1,-1.061889E0,-1.1701695E0,-6.841177E-1,-1.8340342E-1,-1.4261271E0,-1.7439193E0,1.0290557E0,-1.108181E0,-1.6933306E0,-2.4622326E0,-2.256915E0,-2.725255E0,-1.5805919E0,-2.210755E0,3.182915E-2,1.1341291E-1,-2.9955348E-1,4.146078E-2,-1.4910604E-1,-2.593175E-1,-8.383631E-3,-1.8570848E-1,1.1790086E-1,-1.8127162E-2,9.692487E-2,8.193373E-2,5.442933E-2,2.8453464E-2,-7.695378E-3,-5.7745524E-2,4.457157E-2,6.508712E-2,2.756537E-2,1.6561154E-2,-4.2616706E-3,-1.9050166E-2,-5.7747662E-2,-3.1604774E-2,-2.3224178E-1,-7.68144E-2,-8.387429E-2,-4.3931082E-2,-8.621325E-2,-1.0683155E-1,-1.2063861E-1,-9.920522E-2,-6.4841785E-2,-1.3010527E-1,-1.4638563E-1,-1.12848274E-1,-1.8086475E-1,-1.5271588E-1,1.1053441E-1,5.3987652E-2,-7.686711E-2,-1.5804516E-1,1.48742935E-2,-2.0534384E-1,-2.6858062E-1,-2.0623581E-1,-1.8422863E-1,-2.3602962E-1,-2.3178943E-1,-2.774543E-1,-1.4576395E-1,-1.6537324E-1,-2.2198676E-1,-4.366156E-2],"categories":[],"categories_nodes":[],"categories_segments":[],"categories_sizes":[],"default_left":[0,0,0,0,0,0,0,0,0,0,0,0,0,0,0,0,0,0,0,0,0,0,0,0,0,0,0,0,0,0,0,0,0,0,0,0,0,0,0,0,0,0,0,0,0,0,0,0,0,0,0,0,0,0,0,0,0,0,0,0,0,0,0,0,0,0,0,0,0,0,0,0,0,0,0,0,0,0,0,0,0,0,0,0,0,0,0,0,0,0,0,0,0,0,0,0,0,0,0,0,0,0,0,0,0,0,0,0,0,0,0,0,0,0,0,0,0],"id":1,"left_children":[1,3,5,7,9,11,13,15,17,19,21,23,25,27,29,31,33,35,37,39,41,43,45,47,49,51,53,55,57,59,61,-1,-1,63,65,-1,-1,67,69,71,73,75,77,79,81,83,85,87,89,91,93,95,-1,97,99,101,103,105,107,109,111,113,115,-1,-1,-1,-1,-1,-1,-1,-1,-1,-1,-1,-1,-1,-1,-1,-1,-1,-1,-1,-1,-1,-1,-1,-1,-1,-1,-1,-1,-1,-1,-1,-1,-1,-1,-1,-1,-1,-1,-1,-1,-1,-1,-1,-1,-1,-1,-1,-1,-1,-1,-1,-1,-1,-1],"loss_changes":[4.751562E4,1.3507133E4,3.2768477E3,3.7832095E3,3.3022754E3,2.5631836E2,1.4590078E3,4.734287E2,4.5496094E2,3.1527637E2,1.1604917E3,6.049951E1,1.1302881E2,1.7394946E3,2.7767188E2,1.1110992E1,1.4380603E2,2.4856934E1,2.3887695E1,2.95E1,2.2434288E1,1.0315234E2,6.193599E1,7.185559E1,3.722412E0,1.4180084E1,2.9509766E1,7.40012E2,1.7315674E2,1.8395312E2,9.215625E1,0E0,0E0,2.789595E1,1.9376286E2,0E0,0E0,8.94873E0,9.752385E1,1.6338867E1,1.2945862E0,3.5053368E0,2.7056887E0,1.6500586E2,4.8945847E0,2.858677E0,6.992035E0,1.3600281E1,2.832257E1,8.312988E-1,2.7142944E0,3.0730972E0,0E0,5.0063477E0,6.8254395E0,1.0652985E1,5.4943542E1,3.4366467E2,5.8578613E1,4.800244E1,5.411328E1,4.2163086E-1,1.61792E1,0E0,0E0,0E0,0E0,0E0,0E0,0E0,0E0,0E0,0E0,0E0,0E0,0E0,0E0,0E0,0E0,0E0,0E0,0E0,0E0,0E0,0E0,0E0,0E0,0E0,0E0,0E0,0E0,0E0,0E0,0E0,0E0,0E0,0E0,0E0,0E0,0E0,0E0,0E0,0E0,0E0,0E0,0E0,0E0,0E0,0E0,0E0,0E0,0E0,0E0,0E0,0E0,0E0,0E0],"parents":[2147483647,0,0,1,1,2,2,3,3,4,4,5,5,6,6,7,7,8,8,9,9,10,10,11,11,12,12,13,13,14,14,15,15,16,16,17,17,18,18,19,19,20,20,21,21,22,22,23,23,24,24,25,25,26,26,27,27,28,28,29,29,30,30,33,33,34,34,37,37,38,38,39,39,40,40,41,41,42,42,43,43,44,44,45,45,46,46,47,47,48,48,49,49,50,50,51,51,53,53,54,54,55,55,56,56,57,57,58,58,59,59,60,60,61,61,62,62],"right_children":[2,4,6,8,10,12,14,16,18,20,22,24,26,28,30,32,34,36,38,40,42,44,46,48,50,52,54,56,58,60,62,-1,-1,64,66,-1,-1,68,70,72,74,76,78,80,82,84,86,88,90,92,94,96,-1,98,100,102,104,106,108,110,112,114,116,-1,-1,-1,-1,-1,-1,-1,-1,-1,-1,-1,-1,-1,-1,-1,-1,-1,-1,-1,-1,-1,-1,-1,-1,-1,-1,-1,-1,-1,-1,-1,-1,-1,-1,-1,-1,-1,-1,-1,-1,-1,-1,-1,-1,-1,-1,-1,-1,-1,-1,-1,-1,-1,-1],"split_conditions":[5.56E0,5E0,9.95E0,1E0,1E0,8.32E0,5E0,4E0,4E0,3.54E0,3.89E0,6.57E0,1E0,2.31E1,6E0,3E0,1.8E0,3E0,1.44E0,1.94E0,4.68E0,2.74E0,4.92E0,5E0,7.76E0,6E0,9.01E0,1E0,4.087E1,1.268E1,1.22E1,-2.6935896E-1,-1.7937939E-1,5E-2,3.19E0,-2.72091E-1,-2.2264877E-1,1.32E0,3.23E0,7E0,2.59E0,3.99E0,6E0,5E-2,3.23E0,3.99E0,6E0,6.3E0,6E0,5E0,6E0,9.84E0,-1.8340342E-1,8.94E0,9.73E0,2.102E1,1.664E1,1E0,7.22E1,1.036E1,1E0,1.075E1,7E0,3.182915E-2,1.1341291E-1,-2.9955348E-1,4.146078E-2,-1.4910604E-1,-2.593175E-1,-8.383631E-3,-1.8570848E-1,1.1790086E-1,-1.8127162E-2,9.692487E-2,8.193373E-2,5.442933E-2,2.8453464E-2,-7.695378E-3,-5.7745524E-2,4.457157E-2,6.508712E-2,2.756537E-2,1.6561154E-2,-4.2616706E-3,-1.9050166E-2,-5.7747662E-2,-3.1604774E-2,-2.3224178E-1,-7.68144E-2,-8.387429E-2,-4.3931082E-2,-8.621325E-2,-1.0683155E-1,-1.2063861E-1,-9.920522E-2,-6.4841785E-2,-1.3010527E-1,-1.4638563E-1,-1.12848274E-1,-1.8086475E-1,-1.5271588E-1,1.1053441E-1,5.3987652E-2,-7.686711E-2,-1.5804516E-1,1.48742935E-2,-2.0534384E-1,-2.6858062E-1,-2.0623581E-1,-1.8422863E-1,-2.3602962E-1,-2.3178943E-1,-2.774543E-1,-1.4576395E-1,-1.6537324E-1,-2.2198676E-1,-4.366156E-2],"split_indices":[0,2,0,4,4,0,2,2,2,0,0,0,4,0,2,2,0,2,0,0,0,0,0,2,0,2,0,4,0,0,0,0,0,0,0,0,0,0,0,2,0,0,2,0,0,0,2,0,2,2,2,0,0,0,0,0,0,4,0,0,4,0,2,0,0,0,0,0,0,0,0,0,0,0,0,0,0,0,0,0,0,0,0,0,0,0,0,0,0,0,0,0,0,0,0,0,0,0,0,0,0,0,0,0,0,0,0,0,0,0,0,0,0,0,0,0,0],"split_type":[0,0,0,0,0,0,0,0,0,0,0,0,0,0,0,0,0,0,0,0,0,0,0,0,0,0,0,0,0,0,0,0,0,0,0,0,0,0,0,0,0,0,0,0,0,0,0,0,0,0,0,0,0,0,0,0,0,0,0,0,0,0,0,0,0,0,0,0,0,0,0,0,0,0,0,0,0,0,0,0,0,0,0,0,0,0,0,0,0,0,0,0,0,0,0,0,0,0,0,0,0,0,0,0,0,0,0,0,0,0,0,0,0,0,0,0,0],"sum_hessian":[7.180241E4,5.9601926E4,1.22004795E4,5.791254E3,5.381067E4,4.709492E3,7.490988E3,1.7143143E3,4.0769395E3,7.9672407E3,4.584343E4,3.2475269E3,1.4619652E3,1.8824973E3,5.6084907E3,7.785477E1,1.6364596E3,5.0773312E2,3.5692063E3,7.6113237E3,3.5591678E2,4.3729098E4,2.1143333E3,1.278047E3,1.96948E3,1.877401E2,1.2742251E3,6.496937E2,1.2328036E3,4.234847E3,1.3736434E3,3.5104332E1,4.2750435E1,1.5708464E3,6.56132E1,2.6796863E2,2.397645E2,3.4454011E3,1.2380524E2,7.234E3,3.7732397E2,2.2094907E2,1.349677E2,4.206608E4,1.6630189E3,1.3702681E3,7.4406506E2,4.4152855E1,1.2338942E3,1.3641768E3,6.0530316E2,1.7683449E2,1.0905615E1,5.9189514E2,6.8232996E2,3.0044943E2,3.492443E2,5.166178E2,7.161858E2,1.2202957E3,3.0145515E3,3.1392856E2,1.0597148E3,1.5285696E3,4.227685E1,2.9871063E1,3.5742134E1,3.4371711E3,8.229881E0,5.8317936E1,6.5487305E1,7.225408E3,8.591741E0,1.577917E2,2.1953227E2,9.227979E1,1.2866928E2,1.24075836E2,1.0891864E1,3.7684996E4,4.3810835E3,7.13883E2,9.491359E2,1.470871E2,1.223181E3,6.164269E2,1.2763822E2,3.598691E1,8.165943E0,1.0143102E3,2.1958391E2,4.673209E1,1.3174447E3,4.9822592E2,1.07077255E2,1.6910028E2,7.7342043E0,5.2183014E2,7.006498E1,5.19773E2,1.6255695E2,2.588255E2,4.1623917E1,2.0470894E2,1.4453534E2,8.4575005E1,4.320428E2,4.5568933E2,2.6049646E2,2.4729466E2,9.73001E2,3.3055585E2,2.6839956E3,1.2489816E2,1.8903038E2,1.0540498E3,5.6650057E0],"tree_param":{"num_deleted":"0","num_feature":"6","num_nodes":"117","size_leaf_vector":"1"}},{"base_weights":[3.8424113E-3,3.4260795E-1,-1.5051273E0,-2.055378E0,3.969508E-1,-9.826225E-1,-1.8297397E0,-2.063823E-1,-1.4281234E0,5.8976626E-1,-3.531872E-1,-1.0528516E0,-6.545808E-2,-2.0850503E0,-6.431946E-1,-7.144737E-2,-1.7927611E-1,1.0577801E0,5.0153965E-1,-1.5753804E0,3.903398E-1,-8.944811E-1,-1.3337607E0,-1.7870505E-1,2.9209957E-1,-2.1520686E0,-1.6765754E0,6.565811E-2,-1.6184937E0,1.1332127E0,3.6039358E-1,5.4787844E-1,-2.1796857E-1,3.5176236E-2,-2.137024E0,1.2052066E0,1.8850538E-1,-8.7939537E-1,-1.5689943E0,-7.81645E-1,-1.4069883E0,6.2099047E-2,-2.0931971E-1,-5.433145E-1,1.3268225E-1,-1.7445395E0,-2.240756E0,-1.4496776E0,-2.1722765E0,-7.136089E-1,1.1642214E0,-1.7872415E0,5.506134E-1,1.1368388E-1,8.2439415E-2,4.9406957E-2,3.417421E-3,5.6229085E-2,2.922882E-2,-8.75405E-3,-4.4068467E-2,1.4626341E-3,3.157578E-2,-2.1653621E-1,-1.4589775E-1,7.697395E-2,1.2769103E-1,2.2987938E-2,-1.9621025E-1,-7.452809E-2,-9.456636E-2,-8.725966E-2,-1.6655615E-1,-7.280054E-2,-1.8907526E-1,-1.2978767E-1,-1.5343735E-1,4.613778E-3,-2.893482E-2,-1.1065886E-1,8.24415E-2,-1.8488725E-1,-6.429898E-2,-2.1316424E-1,-2.4088497E-1,-1.4464569E-2,-1.5372296E-1,-1.6357963E-1,-2.2048703E-1,-2.6201755E-2,-9.742835E-2,1.2961955E-1,7.904368E-2,-1.38212E-1,-2.0831132E-1,1.3879098E-1,-1.958508E-1],"categories":[],"categories_nodes":[],"categories_segments":[],"categories_sizes":[],"default_left":[0,0,0,0,0,0,0,0,0,0,0,0,0,0,0,0,0,0,0,0,0,0,0,0,0,0,0,0,0,0,0,0,0,0,0,0,0,0,0,0,0,0,0,0,0,0,0,0,0,0,0,0,0,0,0,0,0,0,0,0,0,0,0,0,0,0,0,0,0,0,0,0,0,0,0,0,0,0,0,0,0,0,0,0,0,0,0,0,0,0,0,0,0,0,0,0,0],"id":2,"left_children":[1,3,5,7,9,11,13,-1,15,17,19,21,23,25,27,-1,-1,29,31,33,35,37,39,41,43,45,47,49,51,53,55,57,59,61,63,65,67,69,71,73,75,-1,77,79,-1,81,83,85,87,89,91,93,95,-1,-1,-1,-1,-1,-1,-1,-1,-1,-1,-1,-1,-1,-1,-1,-1,-1,-1,-1,-1,-1,-1,-1,-1,-1,-1,-1,-1,-1,-1,-1,-1,-1,-1,-1,-1,-1,-1,-1,-1,-1,-1,-1,-1],"loss_changes":[3.6568906E4,7.6139263E3,2.2227773E3,3.9111328E0,8.263064E3,3.2379688E2,2.4490156E3,0E0,4.0399513E0,1.8760186E3,1.0616561E4,2.0658057E2,1.4576404E1,1.7859961E2,9.912929E2,0E0,0E0,3.787456E2,1.2750908E3,3.997252E3,1.1945034E3,2.9041504E1,6.689307E1,6.814457E0,7.563054E1,2.026211E2,1.0287329E2,7.1242426E2,2.2187769E2,6.3466797E0,3.0725128E1,1.3217773E2,6.719392E1,6.5889425E0,5.979492E1,4.4039795E1,5.186048E2,2.5304443E1,2.859085E0,1.0473213E1,1.8628906E1,0E0,5.4046555E0,3.839766E1,0E0,1.167063E2,8.087891E1,7.400659E1,1.5340576E0,5.7062195E1,1.6010315E1,6.4263794E1,9.5837944E1,0E0,0E0,0E0,0E0,0E0,0E0,0E0,0E0,0E0,0E0,0E0,0E0,0E0,0E0,0E0,0E0,0E0,0E0,0E0,0E0,0E0,0E0,0E0,0E0,0E0,0E0,0E0,0E0,0E0,0E0,0E0,0E0,0E0,0E0,0E0,0E0,0E0,0E0,0E0,0E0,0E0,0E0,0E0,0E0],"parents":[2147483647,0,0,1,1,2,2,3,3,4,4,5,5,6,6,8,8,9,9,10,10,11,11,12,12,13,13,14,14,17,17,18,18,19,19,20,20,21,21,22,22,23,23,24,24,25,25,26,26,27,27,28,28,29,29,30,30,31,31,32,32,33,33,34,34,35,35,36,36,37,37,38,38,39,39,40,40,42,42,43,43,45,45,46,46,47,47,48,48,49,49,50,50,51,51,52,52],"right_children":[2,4,6,8,10,12,14,-1,16,18,20,22,24,26,28,-1,-1,30,32,34,36,38,40,42,44,46,48,50,52,54,56,58,60,62,64,66,68,70,72,74,76,-1,78,80,-1,82,84,86,88,90,92,94,96,-1,-1,-1,-1,-1,-1,-1,-1,-1,-1,-1,-1,-1,-1,-1,-1,-1,-1,-1,-1,-1,-1,-1,-1,-1,-1,-1,-1,-1,-1,-1,-1,-1,-1,-1,-1,-1,-1,-1,-1,-1,-1,-1,-1],"split_conditions":[5.5E0,1E0,9.95E0,4.5E-1,2E0,6E0,6E0,-2.063823E-1,3.69E0,1E0,6E0,8.08E0,8E0,2E0,2.774E1,-7.144737E-2,-1.7927611E-1,2.03E0,3.59E0,3E0,1E0,3E0,1E0,1E0,1E0,1.155E1,5.333E1,7E0,8.548E1,1.71E0,4.28E0,2.16E0,4.74E0,9E-2,9E-2,1.1E1,1.2E1,6.3E0,5.95E0,9.84E0,9.01E0,6.2099047E-2,6.43E0,8.49E0,1.3268225E-1,1.144E1,2.013E1,1E0,1E0,1.343E1,2.149E1,4.087E1,1E0,1.1368388E-1,8.2439415E-2,4.9406957E-2,3.417421E-3,5.6229085E-2,2.922882E-2,-8.75405E-3,-4.4068467E-2,1.4626341E-3,3.157578E-2,-2.1653621E-1,-1.4589775E-1,7.697395E-2,1.2769103E-1,2.2987938E-2,-1.9621025E-1,-7.452809E-2,-9.456636E-2,-8.725966E-2,-1.6655615E-1,-7.280054E-2,-1.8907526E-1,-1.2978767E-1,-1.5343735E-1,4.613778E-3,-2.893482E-2,-1.1065886E-1,8.24415E-2,-1.8488725E-1,-6.429898E-2,-2.1316424E-1,-2.4088497E-1,-1.4464569E-2,-1.5372296E-1,-1.6357963E-1,-2.2048703E-1,-2.6201755E-2,-9.742835E-2,1.2961955E-1,7.904368E-2,-1.38212E-1,-2.0831132E-1,1.3879098E-1,-1.958508E-1],"split_indices":[0,3,0,0,3,3,3,0,0,4,3,0,3,3,0,0,0,0,0,3,4,3,4,4,4,0,0,3,0,0,0,0,0,0,0,3,3,0,0,0,0,0,0,0,0,0,0,4,4,0,0,0,4,0,0,0,0,0,0,0,0,0,0,0,0,0,0,0,0,0,0,0,0,0,0,0,0,0,0,0,0,0,0,0,0,0,0,0,0,0,0,0,0,0,0,0,0],"split_type":[0,0,0,0,0,0,0,0,0,0,0,0,0,0,0,0,0,0,0,0,0,0,0,0,0,0,0,0,0,0,0,0,0,0,0,0,0,0,0,0,0,0,0,0,0,0,0,0,0,0,0,0,0,0,0,0,0,0,0,0,0,0,0,0,0,0,0,0,0,0,0,0,0,0,0,0,0,0,0,0,0,0,0,0,0,0,0,0,0,0,0,0,0,0,0,0,0],"sum_hessian":[7.153524E4,5.842053E4,1.3114707E4,1.2937655E3,5.7126766E4,5.0270527E3,8.087654E3,1.2743184E3,1.9447147E1,4.5445637E4,1.1681131E4,4.6693623E3,3.5769034E2,6.654943E3,1.4327109E3,7.5770855E0,1.1870061E1,7.206495E3,3.823914E4,4.417925E3,7.263206E3,2.988625E3,1.6807373E3,2.7203168E2,8.565867E1,5.713297E3,9.4164624E2,8.3022876E2,6.024822E2,6.5025273E3,7.039678E2,3.5925645E4,2.3134968E3,1.1425399E3,3.275385E3,1.4408967E3,5.822309E3,2.9254988E3,6.3126225E1,1.9818091E2,1.4825564E3,9.319143E0,2.6271252E2,4.765661E1,3.8002056E1,1.0248163E3,4.6884805E3,6.486591E2,2.9298712E2,4.8590323E2,3.4432556E2,5.59158E2,4.332419E1,6.424411E3,7.811607E1,4.9898325E2,2.0498454E2,3.4006844E4,1.9187992E3,1.4599229E3,8.535739E2,1.0655507E3,7.6989204E1,3.1418804E3,1.335045E2,2.0537244E2,1.2355243E3,5.7132886E3,1.09020744E2,9.715365E2,1.9539624E3,8.909706E0,5.4216522E1,1.9061844E2,7.562471E0,8.0458105E2,6.7797534E2,6.2769764E1,1.9994276E2,3.3890404E1,1.3766205E1,9.355295E2,8.928685E1,2.8513108E3,1.8371696E3,4.0948032E1,6.0771106E2,1.9712616E1,2.732745E2,1.7856436E2,3.0733887E2,2.5265248E2,9.167307E1,2.3840028E2,3.2075772E2,3.2819233E1,1.0504957E1],"tree_param":{"num_deleted":"0","num_feature":"6","num_nodes":"97","size_leaf_vector":"1"}},{"base_weights":[7.014857E-3,3.168454E-1,-1.3046975E0,-8.6044735E-1,4.53774E-1,-7.844975E-1,-1.5404402E0,1.3472383E-1,-1.2384647E0,1.020567E0,3.6199772E-1,-6.3974804E-1,-8.931656E-1,-8.0806226E-1,-1.6551603E0,-1.6803536E0,2.3539218E-1,-1.876379E0,-1.1451929E0,1.0633236E0,1.9170456E-1,3.9375743E-1,-2.5086522E-1,-1.3669596E0,-6.1142325E-1,-6.5270245E-1,-9.2310673E-1,-9.518467E-2,-1.4321289E0,-1.3060882E0,-1.7213794E0,-2.0803912E-1,-1.3123165E-1,2.9782936E-1,-1.0970095E0,-2.0561953E-1,-1.6707447E-1,-1.1545489E0,-8.6843014E-1,1.0768919E0,7.963389E-1,3.437545E-1,-2.2346649E-1,4.0290514E-1,1.4377506E-1,-1.5195346E-1,-4.2963812E-1,-1.5957779E0,-7.337477E-2,-6.602107E-1,-3.7649304E-1,-5.8894074E-1,-1.455528E-1,-8.6376303E-1,-1.0616323E0,8.3175325E-1,-1.5269662E0,-6.354826E-1,-1.5473895E0,-1.3612373E0,-1.1016728E0,-1.7876267E0,-1.4675345E0,2.773028E-2,1.107834E-1,-2.4084122E-1,4.1962143E-2,-1.15116954E-1,-2.2677842E-1,-1.8250285E-2,-1.4253391E-1,1.0787493E-1,-2.0583166E-2,8.570616E-2,6.63546E-2,5.278429E-2,2.445995E-2,-2.6906902E-2,-6.822566E-3,3.848476E-2,5.551064E-2,1.688235E-2,-1.1563961E-3,-1.722143E-2,-4.696018E-3,-4.545681E-2,-3.0784303E-2,-9.9105515E-2,-1.8413323E-1,-3.6561742E-2,-7.005983E-2,-3.1088268E-2,-7.318058E-2,-6.1368406E-2,3.0117083E-2,-8.4579036E-2,-9.227128E-2,-1.09447025E-1,-8.028583E-2,-1.262938E-1,8.948088E-2,-2.0727165E-1,5.7059973E-2,-5.4965343E-2,-1.676342E-1,-1.622942E-1,-1.11541465E-1,-1.3213542E-1,-1.618677E-1,-1.3764529E-1,-1.0785427E-1,-1.4773354E-1,-1.8957703E-1,-1.2122183E-1,-1.5442923E-1],"categories":[],"categories_nodes":[],"categories_segments":[],"categories_sizes":[],"default_left":[0,0,0,0,0,0,0,0,0,0,0,0,0,0,0,0,0,0,0,0,0,0,0,0,0,0,0,0,0,0,0,0,0,0,0,0,0,0,0,0,0,0,0,0,0,0,0,0,0,0,0,0,0,0,0,0,0,0,0,0,0,0,0,0,0,0,0,0,0,0,0,0,0,0,0,0,0,0,0,0,0,0,0,0,0,0,0,0,0,0,0,0,0,0,0,0,0,0,0,0,0,0,0,0,0,0,0,0,0,0,0,0,0,0,0],"id":3,"left_children":[1,3,5,7,9,11,13,15,17,19,21,23,25,27,29,31,33,35,37,39,41,43,45,47,49,51,53,55,57,59,61,-1,-1,63,65,-1,-1,67,69,71,73,75,77,79,81,83,85,87,-1,89,91,93,-1,95,97,99,101,103,105,107,109,111,113,-1,-1,-1,-1,-1,-1,-1,-1,-1,-1,-1,-1,-1,-1,-1,-1,-1,-1,-1,-1,-1,-1,-1,-1,-1,-1,-1,-1,-1,-1,-1,-1,-1,-1,-1,-1,-1,-1,-1,-1,-1,-1,-1,-1,-1,-1,-1,-1,-1,-1,-1,-1],"loss_changes":[2.8806422E4,9.24344E3,1.6596426E3,2.2476519E3,2.6714854E3,6.589502E1,7.8160547E2,3.0106903E2,2.5547021E2,2.5344824E2,8.6056934E2,3.6559692E1,1.6756348E1,5.621781E2,1.8396289E2,1.0018723E1,1.3010052E2,1.6929321E1,8.785645E0,2.3797363E1,2.2317568E1,9.6055176E1,3.845935E1,8.573311E0,1.9800415E1,1.2983566E1,1.6688843E1,7.857216E2,6.089441E1,1.3027832E1,1.1119336E2,0E0,0E0,2.44814E1,1.4031662E2,0E0,0E0,1.1133789E1,4.849865E1,1.5646973E1,2.1164398E0,4.585163E0,6.54531E-1,1.1122119E2,5.7811584E0,2.9789238E0,2.214737E0,5.384392E0,0E0,1.6961304E1,6.8388786E0,5.7386627E0,0E0,8.138428E-1,4.5423584E0,4.8605118E1,2.67489E2,6.839512E0,1.7380737E1,8.237671E0,2.889099E-1,1.7715039E2,2.568872E1,0E0,0E0,0E0,0E0,0E0,0E0,0E0,0E0,0E0,0E0,0E0,0E0,0E0,0E0,0E0,0E0,0E0,0E0,0E0,0E0,0E0,0E0,0E0,0E0,0E0,0E0,0E0,0E0,0E0,0E0,0E0,0E0,0E0,0E0,0E0,0E0,0E0,0E0,0E0,0E0,0E0,0E0,0E0,0E0,0E0,0E0,0E0,0E0,0E0,0E0,0E0,0E0],"parents":[2147483647,0,0,1,1,2,2,3,3,4,4,5,5,6,6,7,7,8,8,9,9,10,10,11,11,12,12,13,13,14,14,15,15,16,16,17,17,18,18,19,19,20,20,21,21,22,22,23,23,24,24,25,25,26,26,27,27,28,28,29,29,30,30,33,33,34,34,37,37,38,38,39,39,40,40,41,41,42,42,43,43,44,44,45,45,46,46,47,47,49,49,50,50,51,51,53,53,54,54,55,55,56,56,57,57,58,58,59,59,60,60,61,61,62,62],"right_children":[2,4,6,8,10,12,14,16,18,20,22,24,26,28,30,32,34,36,38,40,42,44,46,48,50,52,54,56,58,60,62,-1,-1,64,66,-1,-1,68,70,72,74,76,78,80,82,84,86,88,-1,90,92,94,-1,96,98,100,102,104,106,108,110,112,114,-1,-1,-1,-1,-1,-1,-1,-1,-1,-1,-1,-1,-1,-1,-1,-1,-1,-1,-1,-1,-1,-1,-1,-1,-1,-1,-1,-1,-1,-1,-1,-1,-1,-1,-1,-1,-1,-1,-1,-1,-1,-1,-1,-1,-1,-1,-1,-1,-1,-1,-1,-1],"split_conditions":[5.56E0,5E0,9.01E0,1E0,1E0,6.92E0,1E0,4E0,4E0,3.54E0,3.89E0,5E0,1E0,5E0,1.063E1,3E0,1.58E0,3E0,1.44E0,2.03E0,4.92E0,2.84E0,4.92E0,6.5E0,6E0,6E0,8.32E0,3.596E1,9.84E0,6E0,6E0,-2.0803912E-1,-1.3123165E-1,5E-2,3.43E0,-2.0561953E-1,-1.6707447E-1,1.32E0,3.23E0,7E0,3.03E0,3.99E0,5.43E0,5E-2,6E0,6E0,6E0,5.88E0,-7.337477E-2,1E0,6.71E0,8.94E0,-1.455528E-1,8E0,8.94E0,1.036E1,7.22E1,6E0,3.109E1,1.036E1,9.1E0,5E0,1.286E1,2.773028E-2,1.107834E-1,-2.4084122E-1,4.1962143E-2,-1.15116954E-1,-2.2677842E-1,-1.8250285E-2,-1.4253391E-1,1.0787493E-1,-2.0583166E-2,8.570616E-2,6.63546E-2,5.278429E-2,2.445995E-2,-2.6906902E-2,-6.822566E-3,3.848476E-2,5.551064E-2,1.688235E-2,-1.1563961E-3,-1.722143E-2,-4.696018E-3,-4.545681E-2,-3.0784303E-2,-9.9105515E-2,-1.8413323E-1,-3.6561742E-2,-7.005983E-2,-3.1088268E-2,-7.318058E-2,-6.1368406E-2,3.0117083E-2,-8.4579036E-2,-9.227128E-2,-1.09447025E-1,-8.028583E-2,-1.262938E-1,8.948088E-2,-2.0727165E-1,5.7059973E-2,-5.4965343E-2,-1.676342E-1,-1.622942E-1,-1.11541465E-1,-1.3213542E-1,-1.618677E-1,-1.3764529E-1,-1.0785427E-1,-1.4773354E-1,-1.8957703E-1,-1.2122183E-1,-1.5442923E-1],"split_indices":[0,2,0,4,4,0,4,2,2,0,0,2,4,2,0,2,0,2,0,0,0,0,0,0,2,2,0,0,0,2,2,0,0,0,0,0,0,0,0,2,0,0,0,0,2,2,2,0,0,4,0,0,0,0,0,0,0,2,0,0,0,2,0,0,0,0,0,0,0,0,0,0,0,0,0,0,0,0,0,0,0,0,0,0,0,0,0,0,0,0,0,0,0,0,0,0,0,0,0,0,0,0,0,0,0,0,0,0,0,0,0,0,0,0,0],"split_type":[0,0,0,0,0,0,0,0,0,0,0,0,0,0,0,0,0,0,0,0,0,0,0,0,0,0,0,0,0,0,0,0,0,0,0,0,0,0,0,0,0,0,0,0,0,0,0,0,0,0,0,0,0,0,0,0,0,0,0,0,0,0,0,0,0,0,0,0,0,0,0,0,0,0,0,0,0,0,0,0,0,0,0,0,0,0,0,0,0,0,0,0,0,0,0,0,0,0,0,0,0,0,0,0,0,0,0,0,0,0,0,0,0,0,0],"sum_hessian":[7.0878445E4,5.733621E4,1.3542232E4,5.973305E3,5.1362906E4,4.22453E3,9.317703E3,1.6445347E3,4.3287705E3,7.156372E3,4.4206535E4,1.8144756E3,2.410054E3,1.2629597E3,8.054743E3,8.559221E1,1.5589425E3,5.4974963E2,3.7790208E3,6.805053E3,3.5131906E2,4.202888E4,2.177658E3,6.625231E1,1.7482233E3,2.693832E2,2.1406707E3,5.9006976E2,6.7288995E2,1.2876511E3,6.767092E3,3.878367E1,4.680854E1,1.4899012E3,6.904124E1,2.8848538E2,2.6126425E2,3.6523796E3,1.2664108E2,6.473057E3,3.3199615E2,2.5726996E2,9.4049095E1,4.05446E4,1.4842759E3,1.4031635E3,7.744945E2,4.7549595E1,1.8702717E1,1.4461035E3,3.0211975E2,2.5116858E2,1.8214642E1,1.5037201E3,6.369506E2,3.5843643E2,2.3163332E2,8.587327E1,5.870167E2,1.00961E3,2.780411E2,5.3617603E3,1.4053315E3,1.4543876E3,3.5513683E1,3.6710415E1,3.2330822E1,3.6433538E3,9.025839E0,5.73422E1,6.929888E1,6.463856E3,9.201111E0,2.2407741E2,1.0791874E2,8.8548965E1,1.68721E2,7.2128006E1,2.192109E1,3.624762E4,4.2969805E3,1.278096E3,2.061799E2,1.175654E3,2.2750943E2,6.406325E2,1.33862E2,1.5186367E1,3.2363228E1,1.7556364E2,1.2705399E3,2.566103E2,4.5509483E1,2.4467758E2,6.490989E0,1.1641417E3,3.3957837E2,5.623588E2,7.459178E1,9.918455E0,3.4851797E2,1.8381871E2,4.7814598E1,8.074326E1,5.130007E0,4.9728458E2,8.9732124E1,8.7948987E2,1.3012012E2,1.7044703E1,2.609964E2,1.389523E3,3.9722373E3,3.2871912E2,1.0766124E3],"tree_param":{"num_deleted":"0","num_feature":"6","num_nodes":"115","size_leaf_vector":"1"}},{"base_weights":[4.3962933E-3,2.8922743E-1,-1.144587E0,-7.606519E-1,4.1625246E-1,-1.2699624E0,-3.2152218E-1,-1.2249316E0,1.1369416E0,5.3616893E-1,-1.9823074E-1,-8.2813853E-1,-1.5884947E0,1.4107075E-1,-1.196867E0,-9.109394E-1,-1.6240127E0,1.1637739E0,-1.9636974E-1,5.9330714E-1,-8.469728E-2,-1.1079488E0,2.3186745E-1,-7.181976E-1,-1.056911E0,-1.2145189E0,-1.675151E0,-2.7495688E-1,9.391134E-1,-1.3254615E0,6.487079E-1,-1.606425E0,-3.6757582E-1,-1.6560031E0,-1.3152615E0,1.1718045E0,-5.9545726E-2,-2.144883E-1,6.030651E-1,1.1846137E-1,-2.516005E-1,2.025583E-2,-1.9219583E0,2.6849315E-1,-1.6763655E0,-6.1457396E-1,-7.874463E-1,-9.17442E-1,-1.1418444E0,-3.51563E-1,-1.5345113E0,-1.712501E0,-1.0543514E0,-1.6705036E-2,-6.281016E-1,-8.769088E-1,1.044811E0,-1.2014542E0,-1.8294855E0,-1.5482208E-1,1.2431409E-1,-1.8646598E-1,-1.5730901E-1,-3.416442E-2,-7.846381E-2,-1.8660879E-1,-1.6144612E-1,-1.2699153E-1,-2.2367063E-1,5.1236838E-2,1.1764616E-1,6.1430503E-2,3.7361756E-2,1.5197772E-2,-1.3741654E-2,-1.3134058E-2,-4.080334E-2,-2.970241E-2,6.160608E-2,-1.9618107E-1,-1.13737166E-1,1.7574761E-2,1.2759805E-1,-2.1007259E-1,-3.7575245E-2,-1.1217673E-1,-6.0088735E-2,-7.707479E-2,-1.2902527E-1,-9.620584E-2,-6.190412E-2,-1.7163944E-1,-1.1145158E-1,1.7990306E-2,-1.4275046E-1,-1.2490248E-1,-1.8071416E-1,-1.4885919E-1,-1.8067145E-1,-8.698274E-2,-1.3367178E-1,-1.2723199E-1,7.4061414E-4,-8.851995E-2,-2.9809503E-2,-2.1464701E-1,1.2530243E-1,5.7242084E-2,1.1236119E-1,-1.4363235E-1,-9.240999E-2,-2.2751975E-1,-1.1207211E-1],"categories":[],"categories_nodes":[],"categories_segments":[],"categories_sizes":[],"default_left":[0,0,0,0,0,0,0,0,0,0,0,0,0,0,0,0,0,0,0,0,0,0,0,0,0,0,0,0,0,0,0,0,0,0,0,0,0,0,0,0,0,0,0,0,0,0,0,0,0,0,0,0,0,0,0,0,0,0,0,0,0,0,0,0,0,0,0,0,0,0,0,0,0,0,0,0,0,0,0,0,0,0,0,0,0,0,0,0,0,0,0,0,0,0,0,0,0,0,0,0,0,0,0,0,0,0,0,0,0,0,0,0,0],"id":4,"left_children":[1,3,5,7,9,11,13,15,17,19,21,23,25,27,29,31,33,35,-1,37,39,41,43,45,47,49,51,53,55,57,59,61,63,65,67,69,-1,-1,71,73,75,77,79,81,83,85,87,89,91,93,95,97,99,101,103,105,107,109,111,-1,-1,-1,-1,-1,-1,-1,-1,-1,-1,-1,-1,-1,-1,-1,-1,-1,-1,-1,-1,-1,-1,-1,-1,-1,-1,-1,-1,-1,-1,-1,-1,-1,-1,-1,-1,-1,-1,-1,-1,-1,-1,-1,-1,-1,-1,-1,-1,-1,-1,-1,-1,-1,-1],"loss_changes":[2.2989748E4,7.507591E3,1.4396309E3,5.354549E3,3.7004883E3,1.7029668E3,7.4768994E2,6.1030225E2,1.01699585E2,1.4906533E3,3.208867E3,1.2688989E2,2.2597461E2,4.0154822E2,1.5236731E2,1.0328467E3,1.9042969E1,1.744336E1,0E0,1.029374E3,1.2012871E2,2.4177861E3,3.8966168E2,2.4136353E1,1.844104E1,3.6595728E2,1.305791E2,7.251842E1,8.046103E1,3.5124023E1,5.7106094E1,7.38916E0,1.6349716E1,1.3944824E1,5.791107E0,3.0217285E0,0E0,0E0,9.865234E1,1.3726658E1,3.6532867E1,2.0895001E2,4.5585938E1,5.1041364E2,5.7169586E1,8.898132E0,1.6243286E1,7.76239E0,1.4078125E1,2.0629436E2,7.3076904E1,1.10881836E2,1.585495E1,1.3947078E1,2.8234589E1,6.579378E1,1.3951538E1,3.0079956E1,3.409256E1,0E0,0E0,0E0,0E0,0E0,0E0,0E0,0E0,0E0,0E0,0E0,0E0,0E0,0E0,0E0,0E0,0E0,0E0,0E0,0E0,0E0,0E0,0E0,0E0,0E0,0E0,0E0,0E0,0E0,0E0,0E0,0E0,0E0,0E0,0E0,0E0,0E0,0E0,0E0,0E0,0E0,0E0,0E0,0E0,0E0,0E0,0E0,0E0,0E0,0E0,0E0,0E0,0E0,0E0],"parents":[2147483647,0,0,1,1,2,2,3,3,4,4,5,5,6,6,7,7,8,8,9,9,10,10,11,11,12,12,13,13,14,14,15,15,16,16,17,17,19,19,20,20,21,21,22,22,23,23,24,24,25,25,26,26,27,27,28,28,29,29,30,30,31,31,32,32,33,33,34,34,35,35,38,38,39,39,40,40,41,41,42,42,43,43,44,44,45,45,46,46,47,47,48,48,49,49,50,50,51,51,52,52,53,53,54,54,55,55,56,56,57,57,58,58],"right_children":[2,4,6,8,10,12,14,16,18,20,22,24,26,28,30,32,34,36,-1,38,40,42,44,46,48,50,52,54,56,58,60,62,64,66,68,70,-1,-1,72,74,76,78,80,82,84,86,88,90,92,94,96,98,100,102,104,106,108,110,112,-1,-1,-1,-1,-1,-1,-1,-1,-1,-1,-1,-1,-1,-1,-1,-1,-1,-1,-1,-1,-1,-1,-1,-1,-1,-1,-1,-1,-1,-1,-1,-1,-1,-1,-1,-1,-1,-1,-1,-1,-1,-1,-1,-1,-1,-1,-1,-1,-1,-1,-1,-1,-1,-1],"split_conditions":[5.56E0,5E0,6E0,1.1E1,2E0,1.012E1,2.774E1,3E0,1.2E1,3.03E0,6E0,8.4E0,5E0,7E0,8.548E1,1E0,6E0,4.86E0,-1.9636974E-1,1E0,4.11E0,3E0,1.2E1,6.64E0,9.01E0,2.013E1,2E0,1.343E1,6.16E0,6.805E1,7E0,3E0,2.12E0,4E0,8E0,4E0,-5.9545726E-2,-2.144883E-1,1.84E0,6E0,4.92E0,6E0,2.1E-1,1.1E1,7E0,5E0,3E0,8.94E0,5E0,2E0,4.329E1,1.286E1,2.608E1,5E0,6E0,5E0,9.32E0,1.1E1,7.22E1,-1.5482208E-1,1.2431409E-1,-1.8646598E-1,-1.5730901E-1,-3.416442E-2,-7.846381E-2,-1.8660879E-1,-1.6144612E-1,-1.2699153E-1,-2.2367063E-1,5.1236838E-2,1.1764616E-1,6.1430503E-2,3.7361756E-2,1.5197772E-2,-1.3741654E-2,-1.3134058E-2,-4.080334E-2,-2.970241E-2,6.160608E-2,-1.9618107E-1,-1.13737166E-1,1.7574761E-2,1.2759805E-1,-2.1007259E-1,-3.7575245E-2,-1.1217673E-1,-6.0088735E-2,-7.707479E-2,-1.2902527E-1,-9.620584E-2,-6.190412E-2,-1.7163944E-1,-1.1145158E-1,1.7990306E-2,-1.4275046E-1,-1.2490248E-1,-1.8071416E-1,-1.4885919E-1,-1.8067145E-1,-8.698274E-2,-1.3367178E-1,-1.2723199E-1,7.4061414E-4,-8.851995E-2,-2.9809503E-2,-2.1464701E-1,1.2530243E-1,5.7242084E-2,1.1236119E-1,-1.4363235E-1,-9.240999E-2,-2.2751975E-1,-1.1207211E-1],"split_indices":[0,2,3,3,3,0,0,3,3,0,3,0,2,3,0,3,3,0,0,3,0,3,3,0,0,0,3,0,0,0,3,2,0,2,3,2,0,0,0,2,0,2,0,3,2,2,3,0,2,3,0,0,0,2,2,2,0,3,0,0,0,0,0,0,0,0,0,0,0,0,0,0,0,0,0,0,0,0,0,0,0,0,0,0,0,0,0,0,0,0,0,0,0,0,0,0,0,0,0,0,0,0,0,0,0,0,0,0,0,0,0,0,0],"split_type":[0,0,0,0,0,0,0,0,0,0,0,0,0,0,0,0,0,0,0,0,0,0,0,0,0,0,0,0,0,0,0,0,0,0,0,0,0,0,0,0,0,0,0,0,0,0,0,0,0,0,0,0,0,0,0,0,0,0,0,0,0,0,0,0,0,0,0,0,0,0,0,0,0,0,0,0,0,0,0,0,0,0,0,0,0,0,0,0,0,0,0,0,0,0,0,0,0,0,0,0,0,0,0,0,0,0,0,0,0,0,0,0,0],"sum_hessian":[7.0245836E4,5.6291906E4,1.3953927E4,6.0751304E3,5.0216777E4,1.2108869E4,1.8450577E3,4.8812104E3,1.1939197E3,4.2017234E4,8.199542E3,5.0742163E3,7.034653E3,1.2076765E3,6.373812E2,2.733673E3,2.1475376E3,1.1842957E3,9.624002E0,3.8476312E4,3.5409219E3,2.6316523E3,5.56789E3,3.430003E3,1.6442134E3,1.3262169E3,5.7084355E3,7.942707E2,4.1340582E2,5.961266E2,4.1254612E1,1.1981404E3,1.5355327E3,1.9419628E3,2.0557478E2,1.1792465E3,5.049237E0,1.3585226E2,3.834046E4,1.5971376E3,1.9437843E3,1.1033716E3,1.5282808E3,5.4638784E3,1.04011696E2,1.3779373E3,2.0520657E3,6.2678033E2,1.01743304E3,3.5931485E2,9.669021E2,5.3828223E3,3.256133E2,4.5937836E2,3.3489233E2,2.2336655E1,3.9106918E2,4.8113458E2,1.1499205E2,8.443662E0,3.281095E1,1.3070213E2,1.0674382E3,1.4473595E3,8.8173134E1,3.133544E2,1.6286083E3,1.9819914E2,7.3756385E0,9.047977E0,1.1701985E3,3.654839E4,1.7920702E3,1.4125233E3,1.8461427E2,1.099991E3,8.4379333E2,7.202978E2,3.830738E2,1.4529774E3,7.5303314E1,5.004369E3,4.5950916E2,7.795996E1,2.6051737E1,3.4079323E1,1.343858E3,1.9885573E3,6.3508354E1,5.4332007E2,8.346029E1,4.3390648E1,9.740424E2,2.4107002E2,1.1824481E2,4.7504102E2,4.9186108E2,1.5991221E3,3.7837004E3,1.9939247E2,1.26220825E2,7.679726E0,4.5169864E2,1.8729457E2,1.4759776E2,1.3990034E1,8.346621E0,5.709063E1,3.3397855E2,2.5825775E2,2.2287682E2,6.9239914E1,4.5752136E1],"tree_param":{"num_deleted":"0","num_feature":"6","num_nodes":"113","size_leaf_vector":"1"}},{"base_weights":[2.6637474E-3,2.6632476E-1,-1.0135436E0,4.17409E-1,-3.06612E-1,-6.771442E-1,-1.2332175E0,-1.4663421E0,4.7766998E-1,-1.1978589E0,2.9790646E-1,-7.2998565E-1,3.4836814E-2,-1.4025232E0,-4.0252215E-1,-1.4727698E-1,-9.6608585E-1,9.4780844E-1,3.960543E-1,-2.4693271E-2,-1.5717435E0,1.0956084E0,1.2069478E-1,-6.2165385E-1,-9.4373065E-1,-2.5660235E-1,9.5268786E-2,-1.3164785E0,-1.5426185E0,1.542363E-1,-1.0790534E0,-5.4598786E-2,-1.2265792E-1,1.0279014E0,3.2843462E-1,4.4490796E-1,-7.346555E-2,-4.4049818E-2,2.2588597E-1,-1.593765E0,-1.0279651E0,6.2567735E-1,1.1796562E-1,1.5536948E-1,-1.4521846E-1,-5.1943725E-1,-6.89177E-1,-5.35025E-1,-9.9760365E-1,-6.5767676E-1,7.889626E-1,-5.91788E-2,1.2124965E0,-1.3372418E0,-7.689283E-1,-1.6328694E0,-1.2686037E0,-3.9798492E-1,1.081023E0,-1.1772674E0,5.194683E-1,1.01964414E-1,1.1167736E-1,4.456828E-2,2.9649595E-3,4.5158863E-2,3.0414686E-2,1.2904488E-2,-2.202136E-2,-3.0306175E-3,-4.530922E-3,7.518775E-2,-2.4224972E-2,-1.5972625E-1,-6.403705E-2,1.8543508E-2,-1.0819542E-1,6.0225368E-2,8.123004E-2,6.8618315E-3,1.0313318E-1,-5.060641E-2,-9.8992296E-2,-6.785335E-2,-1.0675295E-1,-4.5456626E-2,-1.11875705E-1,-9.444843E-2,-1.0686313E-1,-3.5657726E-2,-2.099016E-1,4.4730764E-2,1.0485033E-1,1.1235847E-2,-1.7390318E-2,1.297953E-1,5.6351032E-2,-1.1413828E-1,-1.4000541E-1,6.549222E-2,-1.06401615E-1,-1.7006718E-1,-1.5267676E-1,-1.034359E-1,-1.6555488E-1,-2.5756149E-2,-9.46961E-2,1.2238824E-1,6.774376E-2,-9.423246E-2,-1.4897752E-1,1.2539773E-1,-1.3557498E-1],"categories":[],"categories_nodes":[],"categories_segments":[],"categories_sizes":[],"default_left":[0,0,0,0,0,0,0,0,0,0,0,0,0,0,0,0,0,0,0,0,0,0,0,0,0,0,0,0,0,0,0,0,0,0,0,0,0,0,0,0,0,0,0,0,0,0,0,0,0,0,0,0,0,0,0,0,0,0,0,0,0,0,0,0,0,0,0,0,0,0,0,0,0,0,0,0,0,0,0,0,0,0,0,0,0,0,0,0,0,0,0,0,0,0,0,0,0,0,0,0,0,0,0,0,0,0,0,0,0,0,0,0,0],"id":5,"left_children":[1,3,5,7,9,11,13,15,17,19,21,23,25,27,29,-1,31,33,35,37,39,41,43,45,47,49,51,53,55,57,59,-1,-1,61,63,65,67,69,71,73,75,77,-1,79,-1,81,83,85,87,89,91,93,95,97,99,101,103,105,107,109,111,-1,-1,-1,-1,-1,-1,-1,-1,-1,-1,-1,-1,-1,-1,-1,-1,-1,-1,-1,-1,-1,-1,-1,-1,-1,-1,-1,-1,-1,-1,-1,-1,-1,-1,-1,-1,-1,-1,-1,-1,-1,-1,-1,-1,-1,-1,-1,-1,-1,-1,-1,-1],"loss_changes":[1.8539049E4,4.755692E3,1.0525176E3,4.935798E3,6.1773E3,2.1195923E2,1.2120273E3,2.911377E0,1.6160947E3,2.0324478E3,9.6566156E2,1.208418E2,6.8959146E0,8.430078E1,5.505233E2,0E0,1.5196209E0,3.087588E2,8.234507E2,5.446592E0,4.0438477E1,4.8306885E1,3.0517053E2,2.3682617E1,3.8260742E1,2.8731617E1,5.5957485E1,4.9490234E1,6.517334E1,4.1108716E2,1.04188965E2,0E0,0E0,2.909668E0,2.503241E1,3.0438477E1,1.0059495E2,1.6651392E-2,2.0013683E1,1.0232422E1,9.344513E0,3.436432E-1,0E0,4.157207E2,0E0,8.242615E0,7.710083E0,9.230198E0,4.8599854E0,2.0590841E1,1.2252779E0,5.637913E0,1.452713E0,5.10542E1,6.989686E1,1.2093262E1,5.97583E1,3.857287E1,1.6459625E1,4.425403E1,5.5255245E1,0E0,0E0,0E0,0E0,0E0,0E0,0E0,0E0,0E0,0E0,0E0,0E0,0E0,0E0,0E0,0E0,0E0,0E0,0E0,0E0,0E0,0E0,0E0,0E0,0E0,0E0,0E0,0E0,0E0,0E0,0E0,0E0,0E0,0E0,0E0,0E0,0E0,0E0,0E0,0E0,0E0,0E0,0E0,0E0,0E0,0E0,0E0,0E0,0E0,0E0,0E0,0E0],"parents":[2147483647,0,0,1,1,2,2,3,3,4,4,5,5,6,6,7,7,8,8,9,9,10,10,11,11,12,12,13,13,14,14,16,16,17,17,18,18,19,19,20,20,21,21,22,22,23,23,24,24,25,25,26,26,27,27,28,28,29,29,30,30,33,33,34,34,35,35,36,36,37,37,38,38,39,39,40,40,41,41,43,43,45,45,46,46,47,47,48,48,49,49,50,50,51,51,52,52,53,53,54,54,55,55,56,56,57,57,58,58,59,59,60,60],"right_children":[2,4,6,8,10,12,14,16,18,20,22,24,26,28,30,-1,32,34,36,38,40,42,44,46,48,50,52,54,56,58,60,-1,-1,62,64,66,68,70,72,74,76,78,-1,80,-1,82,84,86,88,90,92,94,96,98,100,102,104,106,108,110,112,-1,-1,-1,-1,-1,-1,-1,-1,-1,-1,-1,-1,-1,-1,-1,-1,-1,-1,-1,-1,-1,-1,-1,-1,-1,-1,-1,-1,-1,-1,-1,-1,-1,-1,-1,-1,-1,-1,-1,-1,-1,-1,-1,-1,-1,-1,-1,-1,-1,-1,-1,-1],"split_conditions":[5.5E0,2E0,1.012E1,1E0,6E0,6E0,6E0,4.5E-1,1E0,3E0,1E0,8.32E0,1E0,2.013E1,2.774E1,-1.4727698E-1,3.69E0,1.8E0,2.79E0,5E-2,1.7E-1,1.1E1,1.2E1,6.57E0,1E0,8.49E0,8E0,1.965E1,2E0,7E0,8.548E1,-5.4598786E-2,-1.2265792E-1,9E-2,4.28E0,1.67E0,3.89E0,1E0,1.84E0,5E0,7.4E-1,5E-2,1.1796562E-1,1.1E1,-1.4521846E-1,2E0,3E0,9.84E0,9.32E0,8.24E0,9.22E0,7.15E0,9.01E0,1.155E1,1E0,3.109E1,6.4E1,2.149E1,2.149E1,4.889E1,1E0,1.01964414E-1,1.1167736E-1,4.456828E-2,2.9649595E-3,4.5158863E-2,3.0414686E-2,1.2904488E-2,-2.202136E-2,-3.0306175E-3,-4.530922E-3,7.518775E-2,-2.4224972E-2,-1.5972625E-1,-6.403705E-2,1.8543508E-2,-1.0819542E-1,6.0225368E-2,8.123004E-2,6.8618315E-3,1.0313318E-1,-5.060641E-2,-9.8992296E-2,-6.785335E-2,-1.0675295E-1,-4.5456626E-2,-1.11875705E-1,-9.444843E-2,-1.0686313E-1,-3.5657726E-2,-2.099016E-1,4.4730764E-2,1.0485033E-1,1.1235847E-2,-1.7390318E-2,1.297953E-1,5.6351032E-2,-1.1413828E-1,-1.4000541E-1,6.549222E-2,-1.06401615E-1,-1.7006718E-1,-1.5267676E-1,-1.034359E-1,-1.6555488E-1,-2.5756149E-2,-9.46961E-2,1.2238824E-1,6.774376E-2,-9.423246E-2,-1.4897752E-1,1.2539773E-1,-1.3557498E-1],"split_indices":[0,3,0,3,3,3,3,0,4,3,4,0,4,0,0,0,0,0,0,0,0,3,3,0,4,0,3,0,3,3,0,0,0,0,0,0,0,4,0,3,0,0,0,3,0,3,3,0,0,0,0,0,0,0,4,0,0,0,0,0,4,0,0,0,0,0,0,0,0,0,0,0,0,0,0,0,0,0,0,0,0,0,0,0,0,0,0,0,0,0,0,0,0,0,0,0,0,0,0,0,0,0,0,0,0,0,0,0,0,0,0,0,0],"split_type":[0,0,0,0,0,0,0,0,0,0,0,0,0,0,0,0,0,0,0,0,0,0,0,0,0,0,0,0,0,0,0,0,0,0,0,0,0,0,0,0,0,0,0,0,0,0,0,0,0,0,0,0,0,0,0,0,0,0,0,0,0,0,0,0,0,0,0,0,0,0,0,0,0,0,0,0,0,0,0,0,0,0,0,0,0,0,0,0,0,0,0,0,0,0,0,0,0,0,0,0,0,0,0,0,0,0,0,0,0,0,0,0,0],"sum_hessian":[6.919052E4,5.493742E4,1.4253101E4,4.3473633E4,1.1463787E4,5.632227E3,8.620874E3,1.3468838E3,4.212675E4,4.63273E3,6.8310566E3,5.243074E3,3.8915292E2,7.1607407E3,1.4601328E3,1.3278777E3,1.9006077E1,6.229835E3,3.5896914E4,1.1198762E3,3.5128538E3,1.2407506E3,5.590306E3,3.482139E3,1.760935E3,6.627741E1,3.2287552E2,4.4425713E3,2.7181694E3,8.013914E2,6.587414E2,8.459464E0,1.0546614E1,5.515899E3,7.1393567E2,3.2513889E4,3.3830261E3,1.0403373E3,7.953895E1,3.3742744E3,1.3857948E2,1.895237E2,1.0512269E3,5.470606E3,1.1970028E2,1.3886665E3,2.0934724E3,2.063558E2,1.5545793E3,4.817042E1,1.810699E1,2.8449362E2,3.8381886E1,4.2788726E3,1.6369879E2,2.0409829E3,6.7718665E2,5.0253125E2,2.9886017E2,6.208591E2,3.7882355E1,5.0583887E3,4.5751022E2,5.123783E2,2.0155736E2,3.1038557E4,1.4753317E3,1.4214979E3,1.9615282E3,8.943283E1,9.509045E2,3.716957E1,4.236938E1,3.3612688E3,1.3005587E1,5.7995787E0,1.327799E2,1.7214442E2,1.7379267E1,4.9786245E3,4.9198108E2,1.3523042E3,3.6362335E1,2.0389088E3,5.4563614E1,1.8292152E2,2.3434284E1,8.975938E2,6.5698553E2,4.0878242E1,7.2921786E0,8.992662E0,9.114328E0,1.14024086E2,1.7046954E2,3.3032322E1,5.3495636E0,1.043679E3,3.2351936E3,2.7892616E1,1.3580617E2,1.2360684E3,8.049145E2,4.2411414E2,2.5307251E2,4.013408E2,1.0119044E2,2.1922668E2,7.963348E1,3.567046E2,2.6415445E2,2.7458397E1,1.0423959E1],"tree_param":{"num_deleted":"0","num_feature":"6","num_nodes":"113","size_leaf_vector":"1"}},{"base_weights":[2.742911E-3,2.4224302E-1,-9.0312034E-1,3.786439E-1,-2.672589E-1,-5.384625E-1,-1.0735527E0,-1.3226695E0,4.3477067E-1,-1.0612841E0,2.835355E-1,-5.7807887E-1,2.5250714E-2,-1.2113038E0,-3.4063756E-1,-1.3316464E-1,-7.068337E-1,8.9981204E-1,3.5701928E-1,-7.111245E-3,-1.3952854E0,1.0674192E0,1.1965957E-1,-5.168874E-1,-7.066086E-1,-4.058487E-1,1.168257E-1,-9.524978E-1,-1.3001375E0,1.2553093E-1,-9.612056E-1,-3.2764368E-2,-9.179922E-2,9.80862E-1,3.0149835E-1,4.0398777E-1,-9.049359E-2,-2.5659489E-2,2.8907394E-1,-1.4182807E0,-8.449583E-1,6.488052E-1,1.14179924E-1,1.5161861E-1,-1.3009994E-1,-4.133499E-1,-5.616751E-1,-3.7493882E-1,-7.4786687E-1,-6.4858323E-1,1.06452264E-1,-4.2855904E-2,1.24886416E-1,-9.840594E-1,-2.8370067E-1,-1.3439546E0,-1.0524039E0,-3.2326207E-1,1.019785E0,-1.0459598E0,3.9574453E-1,9.733525E-2,1.05953015E-1,4.4700902E-2,4.235487E-3,4.104101E-2,2.6896333E-2,9.038816E-4,-3.3187144E-2,-2.6521932E-3,6.2732734E-3,8.671645E-2,-9.3220165E-3,-1.4221753E-1,-4.045575E-2,3.1805653E-2,-8.895721E-2,6.1914276E-2,8.8098995E-2,7.1816216E-3,9.847127E-2,-5.195534E-2,-3.0779868E-2,-5.507345E-2,-1.0407591E-1,-6.102804E-2,-2.3082115E-2,-6.7176014E-2,-8.1613705E-2,6.83452E-2,-8.960853E-2,1.0689341E-2,-1.2974284E-2,-9.0461716E-2,-1.14610806E-1,9.837848E-2,-8.825992E-2,-1.2730354E-1,-1.5039329E-1,-8.5485466E-2,-1.4477675E-1,-2.235817E-2,-7.725981E-2,1.1583179E-1,6.267705E-2,-8.629087E-2,-1.338028E-1,1.2147838E-1,-1.5047477E-1],"categories":[],"categories_nodes":[],"categories_segments":[],"categories_sizes":[],"default_left":[0,0,0,0,0,0,0,0,0,0,0,0,0,0,0,0,0,0,0,0,0,0,0,0,0,0,0,0,0,0,0,0,0,0,0,0,0,0,0,0,0,0,0,0,0,0,0,0,0,0,0,0,0,0,0,0,0,0,0,0,0,0,0,0,0,0,0,0,0,0,0,0,0,0,0,0,0,0,0,0,0,0,0,0,0,0,0,0,0,0,0,0,0,0,0,0,0,0,0,0,0,0,0,0,0,0,0,0,0],"id":6,"left_children":[1,3,5,7,9,11,13,15,17,19,21,23,25,27,29,-1,31,33,35,37,39,41,43,45,47,49,51,53,55,57,59,-1,-1,61,63,65,67,69,71,73,75,77,-1,79,-1,81,83,85,87,89,-1,91,-1,93,95,97,99,101,103,105,107,-1,-1,-1,-1,-1,-1,-1,-1,-1,-1,-1,-1,-1,-1,-1,-1,-1,-1,-1,-1,-1,-1,-1,-1,-1,-1,-1,-1,-1,-1,-1,-1,-1,-1,-1,-1,-1,-1,-1,-1,-1,-1,-1,-1,-1,-1,-1,-1],"loss_changes":[1.4767639E4,3.7414226E3,8.8401465E2,4.0556538E3,4.97261E3,1.01302124E2,9.787783E2,6.557617E0,1.4861494E3,1.6395967E3,8.622994E2,3.2963867E1,1.1842238E1,1.8645703E2,4.4443256E2,0E0,1.430335E0,2.8524268E2,7.404033E2,6.1682506E0,4.3552734E1,3.539978E1,2.5235994E2,1.3098022E1,1.8385742E1,1.945298E1,4.473893E1,4.3835327E1,6.45293E1,3.5267255E2,7.619751E1,0E0,0E0,2.0322266E0,2.652465E1,2.7533691E1,8.0403564E1,8.21861E-2,1.4704699E1,1.28203125E1,7.7706833E0,6.7658997E-1,0E0,3.6110385E2,0E0,9.6128235E0,9.92981E0,5.045624E0,5.749878E0,1.5692757E1,0E0,2.845232E0,0E0,2.4649902E1,7.3427444E1,5.6609375E1,7.043225E1,2.6043652E1,1.5259674E1,3.2018555E1,6.3255688E1,0E0,0E0,0E0,0E0,0E0,0E0,0E0,0E0,0E0,0E0,0E0,0E0,0E0,0E0,0E0,0E0,0E0,0E0,0E0,0E0,0E0,0E0,0E0,0E0,0E0,0E0,0E0,0E0,0E0,0E0,0E0,0E0,0E0,0E0,0E0,0E0,0E0,0E0,0E0,0E0,0E0,0E0,0E0,0E0,0E0,0E0,0E0,0E0],"parents":[2147483647,0,0,1,1,2,2,3,3,4,4,5,5,6,6,7,7,8,8,9,9,10,10,11,11,12,12,13,13,14,14,16,16,17,17,18,18,19,19,20,20,21,21,22,22,23,23,24,24,25,25,26,26,27,27,28,28,29,29,30,30,33,33,34,34,35,35,36,36,37,37,38,38,39,39,40,40,41,41,43,43,45,45,46,46,47,47,48,48,49,49,51,51,53,53,54,54,55,55,56,56,57,57,58,58,59,59,60,60],"right_children":[2,4,6,8,10,12,14,16,18,20,22,24,26,28,30,-1,32,34,36,38,40,42,44,46,48,50,52,54,56,58,60,-1,-1,62,64,66,68,70,72,74,76,78,-1,80,-1,82,84,86,88,90,-1,92,-1,94,96,98,100,102,104,106,108,-1,-1,-1,-1,-1,-1,-1,-1,-1,-1,-1,-1,-1,-1,-1,-1,-1,-1,-1,-1,-1,-1,-1,-1,-1,-1,-1,-1,-1,-1,-1,-1,-1,-1,-1,-1,-1,-1,-1,-1,-1,-1,-1,-1,-1,-1,-1,-1],"split_conditions":[5.5E0,2E0,9.01E0,1E0,6E0,6E0,6E0,4.5E-1,1E0,3E0,1E0,7.76E0,1E0,1.155E1,2.774E1,-1.3316464E-1,3.69E0,1.8E0,2.84E0,8.2E-1,1.7E-1,1.1E1,1.2E1,6.16E0,1E0,8.49E0,8E0,1.144E1,2E0,7E0,8.548E1,-3.2764368E-2,-9.179922E-2,5E-2,4.01E0,1.71E0,4.68E0,5E-2,1.84E0,5E0,7.4E-1,5E-2,1.14179924E-1,1.1E1,-1.3009994E-1,5.81E0,3E0,8.24E0,8.32E0,6.02E0,1.06452264E-1,6.71E0,1.24886416E-1,1.049E1,1E0,2.31E1,5.333E1,2.149E1,2.149E1,5.333E1,1E0,9.733525E-2,1.05953015E-1,4.4700902E-2,4.235487E-3,4.104101E-2,2.6896333E-2,9.038816E-4,-3.3187144E-2,-2.6521932E-3,6.2732734E-3,8.671645E-2,-9.3220165E-3,-1.4221753E-1,-4.045575E-2,3.1805653E-2,-8.895721E-2,6.1914276E-2,8.8098995E-2,7.1816216E-3,9.847127E-2,-5.195534E-2,-3.0779868E-2,-5.507345E-2,-1.0407591E-1,-6.102804E-2,-2.3082115E-2,-6.7176014E-2,-8.1613705E-2,6.83452E-2,-8.960853E-2,1.0689341E-2,-1.2974284E-2,-9.0461716E-2,-1.14610806E-1,9.837848E-2,-8.825992E-2,-1.2730354E-1,-1.5039329E-1,-8.5485466E-2,-1.4477675E-1,-2.235817E-2,-7.725981E-2,1.1583179E-1,6.267705E-2,-8.629087E-2,-1.338028E-1,1.2147838E-1,-1.5047477E-1],"split_indices":[0,3,0,3,3,3,3,0,4,3,4,0,4,0,0,0,0,0,0,0,0,3,3,0,4,0,3,0,3,3,0,0,0,0,0,0,0,0,0,3,0,0,0,3,0,0,3,0,0,0,0,0,0,0,4,0,0,0,0,0,4,0,0,0,0,0,0,0,0,0,0,0,0,0,0,0,0,0,0,0,0,0,0,0,0,0,0,0,0,0,0,0,0,0,0,0,0,0,0,0,0,0,0,0,0,0,0,0,0],"split_type":[0,0,0,0,0,0,0,0,0,0,0,0,0,0,0,0,0,0,0,0,0,0,0,0,0,0,0,0,0,0,0,0,0,0,0,0,0,0,0,0,0,0,0,0,0,0,0,0,0,0,0,0,0,0,0,0,0,0,0,0,0,0,0,0,0,0,0,0,0,0,0,0,0,0,0,0,0,0,0,0,0,0,0,0,0,0,0,0,0,0,0,0,0,0,0,0,0,0,0,0,0,0,0,0,0,0,0,0,0],"sum_hessian":[6.8065945E4,5.383366E4,1.4232284E4,4.2465344E4,1.1368316E4,4.5344707E3,9.697813E3,1.3554808E3,4.1109863E4,4.655714E3,6.7126025E3,4.2367E3,2.977701E2,8.16294E3,1.5348739E3,1.3348606E3,2.0620173E1,5.887196E3,3.5222668E4,1.1204329E3,3.5352808E3,1.1597142E3,5.552888E3,2.8736243E3,1.3630763E3,5.1569427E1,2.462007E2,2.0889026E3,6.074037E3,8.769271E2,6.579468E2,8.288199E0,1.2331973E1,5.184274E3,7.02922E2,3.1877117E4,3.3455493E3,1.0552617E3,6.5171135E1,3.391971E3,1.4330995E2,1.7643771E2,9.832766E2,5.431593E3,1.2129546E2,8.707964E2,2.0028278E3,1.5191757E2,1.2111587E3,4.4742126E1,6.8273034E0,2.1660872E2,2.9591969E1,1.9943162E3,9.458638E1,5.157413E3,9.166242E2,5.8431805E2,2.9260907E2,6.1948346E2,3.8463333E1,4.7447227E3,4.3955103E2,4.4969217E2,2.5322981E2,3.0427807E4,1.4493099E3,2.3694617E3,9.760876E2,1.0457582E3,9.503508E0,2.5437382E1,3.9733753E1,3.378588E3,1.33828535E1,5.067911E0,1.3824203E2,1.5970183E2,1.6735878E1,4.957772E3,4.7382074E2,4.32102E2,4.3869443E2,1.9602129E3,4.2614857E1,5.6469414E1,9.544816E1,5.77835E2,6.3332367E2,6.7347674E0,3.800736E1,7.944878E1,1.3715994E2,1.342671E3,6.5164514E2,3.0145329E1,6.4441055E1,3.5795435E3,1.5778696E3,6.133279E2,3.0329636E2,4.794539E2,1.0486414E2,2.14909E2,7.770006E1,3.832435E2,2.3623996E2,2.71315E1,1.1331831E1],"tree_param":{"num_deleted":"0","num_feature":"6","num_nodes":"109","size_leaf_vector":"1"}},{"base_weights":[6.856732E-3,2.3572189E-1,-7.937239E-1,3.668315E-1,-2.4195981E-1,-5.0031567E-1,-1.0042362E0,-1.2190341E0,4.2010924E-1,-9.633254E-1,2.627882E-1,-5.394373E-1,7.7508844E-2,-1.1411145E0,-3.2010746E-1,-1.2240281E-1,-8.5736245E-1,4.6158794E-1,7.1945705E-2,1.4596024E-2,-1.2709013E0,8.5591085E-2,8.6917484E-1,-4.4978568E-1,-6.761865E-1,5.7096398E-3,3.1237018E-1,-9.1785246E-1,-1.1894819E0,1.3975154E-1,-8.8001424E-1,-5.1861953E-2,-1.0152791E-1,4.5343168E-2,5.401753E-1,1.9035548E-1,-9.7675785E-2,2.2041194E-2,-5.5950385E-1,-1.2863905E0,-8.795405E-1,9.054099E-2,-2.2145028E-1,1.0610616E0,-1.1909272E-1,-3.597908E-1,-5.16178E-1,-6.163089E-1,-7.6805955E-1,1.6802044E-1,-6.743497E-2,-2.2671308E-1,5.9837186E-1,-9.699025E-1,-6.1652154E-1,-1.2325586E0,-9.473158E-1,-2.7910882E-1,9.815636E-1,-9.585085E-1,5.1245403E-1,6.477301E-2,3.818942E-2,2.4483679E-2,1.5402958E-2,2.554314E-3,-1.3653274E-2,4.1444515E-4,3.9012235E-2,-8.674141E-2,-1.8108455E-2,-1.2890184E-1,-5.4925032E-2,4.823415E-3,-9.223683E-2,6.893825E-3,3.3911433E-2,1.06718294E-1,-3.0807493E-2,-3.864048E-2,-1.4873706E-2,-5.093307E-2,-8.277475E-2,-6.0371257E-2,-1.0443296E-1,-7.8159824E-2,-1.3313045E-2,6.031725E-3,4.567772E-2,-2.0069992E-2,4.94097E-3,1.17215894E-1,-1.2182953E-1,8.986719E-2,2.0618668E-2,-8.893606E-2,-1.0729338E-1,-2.1745306E-2,-1.0154893E-1,-1.1537836E-1,-1.3501264E-1,-7.501673E-2,-1.3443094E-1,1.8256806E-2,-4.5422375E-2,1.17354505E-1,6.345116E-2,-6.921375E-2,-1.15270905E-1,-1.3230775E-1,1.1089251E-1],"categories":[],"categories_nodes":[],"categories_segments":[],"categories_sizes":[],"default_left":[0,0,0,0,0,0,0,0,0,0,0,0,0,0,0,0,0,0,0,0,0,0,0,0,0,0,0,0,0,0,0,0,0,0,0,0,0,0,0,0,0,0,0,0,0,0,0,0,0,0,0,0,0,0,0,0,0,0,0,0,0,0,0,0,0,0,0,0,0,0,0,0,0,0,0,0,0,0,0,0,0,0,0,0,0,0,0,0,0,0,0,0,0,0,0,0,0,0,0,0,0,0,0,0,0,0,0,0,0,0,0],"id":7,"left_children":[1,3,5,7,9,11,13,15,17,19,21,23,25,27,29,-1,31,33,35,37,39,41,43,45,47,49,51,53,55,57,59,-1,-1,-1,61,63,65,67,69,71,73,75,-1,77,-1,79,81,83,85,87,89,91,93,95,97,99,101,103,105,107,109,-1,-1,-1,-1,-1,-1,-1,-1,-1,-1,-1,-1,-1,-1,-1,-1,-1,-1,-1,-1,-1,-1,-1,-1,-1,-1,-1,-1,-1,-1,-1,-1,-1,-1,-1,-1,-1,-1,-1,-1,-1,-1,-1,-1,-1,-1,-1,-1,-1,-1],"loss_changes":[1.2262661E4,3.259765E3,9.1851953E2,3.451058E3,4.0817625E3,1.4059595E2,8.107988E2,1.3486328E0,5.705796E2,1.3880879E3,7.086437E2,7.109143E1,6.661583E0,7.684961E1,3.7232812E2,0E0,6.19339E-1,2.238623E1,8.452377E1,4.73608E0,2.0149414E1,5.832621E1,5.908406E2,2.0849182E1,1.220166E1,3.61633E0,1.4397028E1,1.9628662E1,6.068457E1,2.8043875E2,7.17569E1,0E0,0E0,0E0,5.6178345E1,4.8666153E0,8.288153E0,7.1916976E0,1.4959335E0,5.82959E0,5.480835E0,2.7337978E1,0E0,1.17677E1,0E0,8.356155E0,3.8955688E0,6.9175415E0,7.6760254E0,2.9150164E0,3.280439E0,4.690874E1,6.9647827E0,8.156616E0,3.045884E1,4.503076E1,6.9410645E1,4.3040554E1,1.6859467E1,3.114862E1,4.027359E1,0E0,0E0,0E0,0E0,0E0,0E0,0E0,0E0,0E0,0E0,0E0,0E0,0E0,0E0,0E0,0E0,0E0,0E0,0E0,0E0,0E0,0E0,0E0,0E0,0E0,0E0,0E0,0E0,0E0,0E0,0E0,0E0,0E0,0E0,0E0,0E0,0E0,0E0,0E0,0E0,0E0,0E0,0E0,0E0,0E0,0E0,0E0,0E0,0E0,0E0],"parents":[2147483647,0,0,1,1,2,2,3,3,4,4,5,5,6,6,7,7,8,8,9,9,10,10,11,11,12,12,13,13,14,14,16,16,17,17,18,18,19,19,20,20,21,21,22,22,23,23,24,24,25,25,26,26,27,27,28,28,29,29,30,30,34,34,35,35,36,36,37,37,38,38,39,39,40,40,41,41,43,43,45,45,46,46,47,47,48,48,49,49,50,50,51,51,52,52,53,53,54,54,55,55,56,56,57,57,58,58,59,59,60,60],"right_children":[2,4,6,8,10,12,14,16,18,20,22,24,26,28,30,-1,32,34,36,38,40,42,44,46,48,50,52,54,56,58,60,-1,-1,-1,62,64,66,68,70,72,74,76,-1,78,-1,80,82,84,86,88,90,92,94,96,98,100,102,104,106,108,110,-1,-1,-1,-1,-1,-1,-1,-1,-1,-1,-1,-1,-1,-1,-1,-1,-1,-1,-1,-1,-1,-1,-1,-1,-1,-1,-1,-1,-1,-1,-1,-1,-1,-1,-1,-1,-1,-1,-1,-1,-1,-1,-1,-1,-1,-1,-1,-1,-1,-1],"split_conditions":[5.04E0,2E0,1E1,1E0,6E0,6E0,6E0,4.5E-1,2.16E0,3E0,1.1E1,7.76E0,7E0,1.171E1,2.774E1,-1.2240281E-1,3.69E0,5E-2,3.84E0,3.99E0,1.7E-1,8E0,1.2E1,6.16E0,9.01E0,6.5E0,6.16E0,1.144E1,2E0,1.1E1,8.548E1,-5.1861953E-2,-1.0152791E-1,4.5343168E-2,1.28E0,2.84E0,4.11E0,8.2E-1,4.45E0,5E0,7.4E-1,9E-2,-2.2145028E-1,4.86E0,-1.1909272E-1,6.02E0,3E0,3E0,2E0,6.16E0,8.08E0,5.95E0,8.24E0,1.075E1,1.155E1,2.013E1,5.333E1,1.251E1,2.013E1,4.087E1,7E0,6.477301E-2,3.818942E-2,2.4483679E-2,1.5402958E-2,2.554314E-3,-1.3653274E-2,4.1444515E-4,3.9012235E-2,-8.674141E-2,-1.8108455E-2,-1.2890184E-1,-5.4925032E-2,4.823415E-3,-9.223683E-2,6.893825E-3,3.3911433E-2,1.06718294E-1,-3.0807493E-2,-3.864048E-2,-1.4873706E-2,-5.093307E-2,-8.277475E-2,-6.0371257E-2,-1.0443296E-1,-7.8159824E-2,-1.3313045E-2,6.031725E-3,4.567772E-2,-2.0069992E-2,4.94097E-3,1.17215894E-1,-1.2182953E-1,8.986719E-2,2.0618668E-2,-8.893606E-2,-1.0729338E-1,-2.1745306E-2,-1.0154893E-1,-1.1537836E-1,-1.3501264E-1,-7.501673E-2,-1.3443094E-1,1.8256806E-2,-4.5422375E-2,1.17354505E-1,6.345116E-2,-6.921375E-2,-1.15270905E-1,-1.3230775E-1,1.1089251E-1],"split_indices":[0,3,0,3,3,3,3,0,0,3,3,0,3,0,0,0,0,0,0,0,0,3,3,0,0,0,0,0,3,3,0,0,0,0,0,0,0,0,0,3,0,0,0,0,0,0,3,3,3,0,0,0,0,0,0,0,0,0,0,0,3,0,0,0,0,0,0,0,0,0,0,0,0,0,0,0,0,0,0,0,0,0,0,0,0,0,0,0,0,0,0,0,0,0,0,0,0,0,0,0,0,0,0,0,0,0,0,0,0,0,0],"split_type":[0,0,0,0,0,0,0,0,0,0,0,0,0,0,0,0,0,0,0,0,0,0,0,0,0,0,0,0,0,0,0,0,0,0,0,0,0,0,0,0,0,0,0,0,0,0,0,0,0,0,0,0,0,0,0,0,0,0,0,0,0,0,0,0,0,0,0,0,0,0,0,0,0,0,0,0,0,0,0,0,0,0,0,0,0,0,0,0,0,0,0,0,0,0,0,0,0,0,0,0,0,0,0,0,0,0,0,0,0,0,0],"sum_hessian":[6.692476E4,5.2046676E4,1.4878084E4,4.083806E4,1.1208616E4,6.216717E3,8.661367E3,1.3266647E3,3.9511395E4,4.613821E3,6.594796E3,5.8225664E3,3.941505E2,7.216788E3,1.4445793E3,1.3062435E3,2.0421125E1,3.5304984E4,4.2064106E3,1.1041587E3,3.509662E3,5.104353E3,1.490443E3,3.5195007E3,2.303066E3,3.0265155E2,9.149896E1,1.2886064E3,5.9281816E3,7.935645E2,6.5101483E2,7.8552227E0,1.2565904E1,3.1991484E4,3.3135E3,2.4770815E3,1.7293293E3,1.0909722E3,1.3186581E1,3.3738455E3,1.358167E2,5.0943506E3,1.0002636E1,1.3638894E3,1.265536E2,1.4968866E3,2.022614E3,1.3989916E3,9.040743E2,9.361625E1,2.090353E2,3.1788418E1,5.971055E1,1.0969137E3,1.916927E2,5.029449E3,8.987322E2,5.3034784E2,2.6321667E2,6.1657007E2,3.4444763E1,1.9710476E3,1.3424523E3,9.886189E2,1.4884625E3,4.1468103E2,1.3146483E3,1.0413511E3,4.9621037E1,6.558164E0,6.6284165E0,3.3611147E3,1.2730548E1,5.987334E0,1.2982936E2,4.6881914E3,4.0615894E2,1.3580382E3,5.8511233E0,1.3285276E3,1.6835905E2,1.9816974E3,4.0916653E1,1.3613389E3,3.765272E1,8.849729E2,1.9101393E1,6.906473E1,2.455152E1,9.732054E1,1.1171475E2,1.3110585E1,1.8677832E1,3.3085335E1,2.6625214E1,6.210537E2,4.7586E2,9.660668E1,9.508602E1,3.0180515E3,2.0113978E3,6.024452E2,2.9628696E2,1.4583159E2,3.845162E2,1.6793654E2,9.528014E1,2.6190192E2,3.5466818E2,8.149128E0,2.6295637E1],"tree_param":{"num_deleted":"0","num_feature":"6","num_nodes":"111","size_leaf_vector":"1"}},{"base_weights":[6.649425E-3,2.0946597E-1,-7.3846E-1,-6.16669E-1,3.0999917E-1,-4.730933E-1,-9.203044E-1,3.0739479E-2,-8.35257E-1,8.692925E-1,2.3125635E-1,-4.1205156E-1,-5.913378E-1,-4.1916117E-1,-9.9920064E-1,-1.0552214E0,9.590293E-2,-1.4510877E-1,-7.9554576E-1,9.148055E-1,1.6202705E-1,2.5834554E-1,-1.0227931E-1,-7.2237396E-1,-4.0152967E-1,-2.6787594E-1,-6.355248E-1,8.432077E-2,-8.7288326E-1,-1.0591459E0,-7.755056E-1,-1.548604E-1,-6.552219E-2,1.5133524E-1,-8.6437273E-1,-1.0228951E-1,-7.804944E-1,9.249789E-1,6.358091E-2,2.9400903E-1,-1.1562653E-2,2.5279152E-1,5.5720534E-2,-4.1320134E-2,-2.649323E-1,-1.1652468E0,-4.7777346E-1,-1.977743E-1,-4.2531934E-1,-2.252147E-1,-8.849048E-2,-6.6191363E-1,-5.276575E-1,7.997082E-1,-9.0593946E-1,-9.4537383E-1,-5.089549E-1,-8.8159615E-1,-1.1154488E0,-5.946133E-1,-8.6449915E-1,1.3192198E-2,9.025794E-2,-2.1010017E-1,5.3178377E-2,-7.7358924E-2,-1.1858537E-1,9.265746E-2,-8.327334E-3,7.825973E-3,3.391112E-2,2.5464126E-3,-3.7238207E-2,2.4063284E-2,3.3953562E-2,6.289609E-3,-9.789979E-3,-2.9083196E-2,-1.4107853E-2,-7.717182E-2,-1.4145522E-1,-3.4738403E-2,-9.963458E-2,-1.656886E-2,-6.0953703E-2,-3.5344437E-2,-4.529925E-2,-1.6681572E-2,-6.4402096E-2,-7.705291E-2,-6.4065E-2,-4.616636E-2,-5.62539E-2,9.828652E-2,5.3472098E-2,-1.3093261E-1,7.213443E-2,-8.1603274E-2,-1.0685434E-1,-2.1197004E-2,-1.0354316E-1,9.4896037E-4,-1.0415001E-1,-9.30264E-2,-1.1797756E-1,-8.310722E-2,-5.8292326E-2,-8.720599E-2,5.1706523E-2],"categories":[],"categories_nodes":[],"categories_segments":[],"categories_sizes":[],"default_left":[0,0,0,0,0,0,0,0,0,0,0,0,0,0,0,0,0,0,0,0,0,0,0,0,0,0,0,0,0,0,0,0,0,0,0,0,0,0,0,0,0,0,0,0,0,0,0,0,0,0,0,0,0,0,0,0,0,0,0,0,0,0,0,0,0,0,0,0,0,0,0,0,0,0,0,0,0,0,0,0,0,0,0,0,0,0,0,0,0,0,0,0,0,0,0,0,0,0,0,0,0,0,0,0,0,0,0,0,0],"id":8,"left_children":[1,3,5,7,9,11,13,15,17,19,21,23,25,27,29,31,33,-1,35,37,39,41,43,45,47,49,51,53,55,57,59,-1,-1,61,63,-1,65,67,-1,69,71,73,-1,75,77,79,81,83,85,87,-1,89,91,93,95,97,99,101,103,105,107,-1,-1,-1,-1,-1,-1,-1,-1,-1,-1,-1,-1,-1,-1,-1,-1,-1,-1,-1,-1,-1,-1,-1,-1,-1,-1,-1,-1,-1,-1,-1,-1,-1,-1,-1,-1,-1,-1,-1,-1,-1,-1,-1,-1,-1,-1,-1,-1],"loss_changes":[9.954086E3,4.3003447E3,6.7963525E2,7.949746E2,2.0326572E3,4.11333E1,3.3018213E2,1.0050688E2,1.0154663E2,1.8321484E2,3.6562427E2,1.2065735E1,2.7693298E1,2.602787E2,9.604199E1,1.4853073E1,7.1430595E1,0E0,1.2708984E1,1.4602051E1,7.9216795E0,6.1979004E1,3.0133642E1,1.2750801E1,1.7667847E1,6.0138435E0,4.530884E0,3.838586E2,1.5327057E1,5.593799E1,2.4122131E1,0E0,0E0,1.8362019E1,1.2758545E2,0E0,9.457275E0,8.380859E0,0E0,1.8843403E0,2.0166788E0,3.867163E1,0E0,1.3052927E1,2.6169891E0,3.128334E0,5.119505E0,4.9822874E0,6.36084E0,5.3249073E0,0E0,2.67865E0,5.2737427E-1,1.4739655E1,1.50153E2,7.069916E0,1.5681616E1,1.960304E2,5.0356934E1,9.1929626E-1,1.1142334E1,0E0,0E0,0E0,0E0,0E0,0E0,0E0,0E0,0E0,0E0,0E0,0E0,0E0,0E0,0E0,0E0,0E0,0E0,0E0,0E0,0E0,0E0,0E0,0E0,0E0,0E0,0E0,0E0,0E0,0E0,0E0,0E0,0E0,0E0,0E0,0E0,0E0,0E0,0E0,0E0,0E0,0E0,0E0,0E0,0E0,0E0,0E0,0E0],"parents":[2147483647,0,0,1,1,2,2,3,3,4,4,5,5,6,6,7,7,8,8,9,9,10,10,11,11,12,12,13,13,14,14,15,15,16,16,18,18,19,19,20,20,21,21,22,22,23,23,24,24,25,25,26,26,27,27,28,28,29,29,30,30,33,33,34,34,36,36,37,37,39,39,40,40,41,41,43,43,44,44,45,45,46,46,47,47,48,48,49,49,51,51,52,52,53,53,54,54,55,55,56,56,57,57,58,58,59,59,60,60],"right_children":[2,4,6,8,10,12,14,16,18,20,22,24,26,28,30,32,34,-1,36,38,40,42,44,46,48,50,52,54,56,58,60,-1,-1,62,64,-1,66,68,-1,70,72,74,-1,76,78,80,82,84,86,88,-1,90,92,94,96,98,100,102,104,106,108,-1,-1,-1,-1,-1,-1,-1,-1,-1,-1,-1,-1,-1,-1,-1,-1,-1,-1,-1,-1,-1,-1,-1,-1,-1,-1,-1,-1,-1,-1,-1,-1,-1,-1,-1,-1,-1,-1,-1,-1,-1,-1,-1,-1,-1,-1,-1,-1],"split_conditions":[5.56E0,5E0,1.012E1,1E0,1E0,8.32E0,1E0,4E0,3E0,3.54E0,3.33E0,5E0,1E0,5E0,6E0,3E0,1.67E0,-1.4510877E-1,4E0,2.53E0,4.63E0,7E0,4.92E0,6.3E0,1E0,6E0,6E0,4E1,3.004E1,5E0,1.343E1,-1.548604E-1,-6.552219E-2,5E-2,3.43E0,-1.0228951E-1,3.94E0,7E0,6.358091E-2,3.74E0,6E0,5E-2,5.5720534E-2,3.89E0,6E0,5.95E0,8E0,6E0,6.3E0,9.84E0,-8.849048E-2,8.58E0,8.94E0,2.013E1,7.22E1,1.454E1,4.087E1,1.664E1,1.251E1,1.023E1,7E0,1.3192198E-2,9.025794E-2,-2.1010017E-1,5.3178377E-2,-7.7358924E-2,-1.1858537E-1,9.265746E-2,-8.327334E-3,7.825973E-3,3.391112E-2,2.5464126E-3,-3.7238207E-2,2.4063284E-2,3.3953562E-2,6.289609E-3,-9.789979E-3,-2.9083196E-2,-1.4107853E-2,-7.717182E-2,-1.4145522E-1,-3.4738403E-2,-9.963458E-2,-1.656886E-2,-6.0953703E-2,-3.5344437E-2,-4.529925E-2,-1.6681572E-2,-6.4402096E-2,-7.705291E-2,-6.4065E-2,-4.616636E-2,-5.62539E-2,9.828652E-2,5.3472098E-2,-1.3093261E-1,7.213443E-2,-8.1603274E-2,-1.0685434E-1,-2.1197004E-2,-1.0354316E-1,9.4896037E-4,-1.0415001E-1,-9.30264E-2,-1.1797756E-1,-8.310722E-2,-5.8292326E-2,-8.720599E-2,5.1706523E-2],"split_indices":[0,2,0,4,4,0,4,2,2,0,0,2,4,2,2,2,0,0,2,0,0,2,0,0,4,2,2,0,0,2,0,0,0,0,0,0,0,2,0,0,2,0,0,0,2,0,0,2,0,0,0,0,0,0,0,0,0,0,0,0,2,0,0,0,0,0,0,0,0,0,0,0,0,0,0,0,0,0,0,0,0,0,0,0,0,0,0,0,0,0,0,0,0,0,0,0,0,0,0,0,0,0,0,0,0,0,0,0,0],"split_type":[0,0,0,0,0,0,0,0,0,0,0,0,0,0,0,0,0,0,0,0,0,0,0,0,0,0,0,0,0,0,0,0,0,0,0,0,0,0,0,0,0,0,0,0,0,0,0,0,0,0,0,0,0,0,0,0,0,0,0,0,0,0,0,0,0,0,0,0,0,0,0,0,0,0,0,0,0,0,0,0,0,0,0,0,0,0,0,0,0,0,0,0,0,0,0,0,0,0,0,0,0,0,0,0,0,0,0,0,0],"sum_hessian":[6.58665E4,5.177439E4,1.4092114E4,5.6163896E3,4.6158E4,5.731581E3,8.360532E3,1.4178616E3,4.198528E3,5.695322E3,4.046268E4,3.7831028E3,1.9484784E3,1.1380477E3,7.222485E3,7.940297E1,1.3384586E3,2.5218423E2,3.9463438E3,5.350707E3,3.4461475E2,3.7423438E4,3.0392422E3,1.2184597E2,3.6612568E3,2.3503271E2,1.7134457E3,5.398293E2,5.9821844E2,5.6931196E3,1.5293651E3,3.4265907E1,4.5137062E1,1.2662086E3,7.225001E1,2.408822E2,3.7054617E3,5.1602266E3,1.9048007E2,1.9537527E2,1.4923947E2,3.674246E4,6.8097687E2,2.2116228E3,8.2761926E2,4.201318E1,7.9832794E1,3.837559E2,3.277501E3,2.2111021E2,1.3922508E1,1.3725316E3,3.4091412E2,3.1352432E2,2.2630498E2,4.9752014E2,1.0069828E2,1.3746975E3,4.3184224E3,5.0683365E2,1.0225315E3,1.2354581E3,3.0750452E1,3.8046196E1,3.420381E1,3.6462576E3,5.9204144E1,5.152154E3,8.073004E0,3.4254032E1,1.6112125E2,1.3619296E2,1.3046503E1,3.2228805E4,4.513655E3,7.781701E2,1.4334528E3,6.833685E2,1.4425076E2,1.788196E1,2.413122E1,6.512715E1,1.4705638E1,3.5731525E2,2.6440632E1,9.1493256E2,2.3625684E3,1.9527858E2,2.5831635E1,2.1894022E2,1.1535913E3,1.22806244E2,2.1810786E2,1.8378474E2,1.2973958E2,1.8150674E2,4.4798225E1,2.4639977E2,2.5112038E2,6.527778E1,3.5420498E1,2.0929794E2,1.1653995E3,1.1173234E3,3.2010989E3,2.0574553E1,4.862591E2,1.0173328E3,5.1986456E0],"tree_param":{"num_deleted":"0","num_feature":"6","num_nodes":"109","size_leaf_vector":"1"}},{"base_weights":[7.725131E-3,2.0061551E-1,-6.475739E-1,3.2031706E-1,-2.2824837E-1,-4.0431452E-1,-8.508349E-1,-1.0730405E0,3.6816052E-1,-8.8736266E-1,2.3480445E-1,-4.4026056E-1,1.3251425E-1,-9.821609E-1,-2.1885036E-1,-1.0792996E-1,-6.4442736E-1,8.2703775E-1,2.978135E-1,-4.7664646E-2,-1.1543992E0,6.6702545E-2,8.510911E-1,-3.750226E-1,-5.8828765E-1,3.9983186E-1,8.531709E-2,-9.102665E-1,-1.098486E0,2.0603076E-1,-7.237962E-1,-3.448103E-2,-8.1117734E-2,8.9863217E-1,2.995064E-1,3.3029696E-1,2.782608E-3,-3.921942E-2,-6.356702E-1,-1.1717632E0,-7.381186E-1,7.0601724E-2,-1.7875573E-1,1.0356213E0,-1.08785406E-1,-3.650457E-1,-8.137441E-1,-3.4916577E-1,-6.196677E-1,2.1573272E-1,1.13398425E-1,-3.7321275E-1,1.4590393E-1,-9.2928946E-1,-4.4538984E-1,-1.1613117E0,-9.0673417E-1,-1.6495499E-1,9.5718E-1,-7.828951E-1,4.2563975E-1,8.897945E-2,9.950455E-2,3.845389E-2,9.322817E-3,3.236267E-2,3.883744E-2,8.486002E-3,-9.898697E-3,-5.618973E-3,3.6357187E-2,-8.2462415E-2,-3.2737844E-2,-1.1745311E-1,-4.2936802E-2,-8.460872E-2,-6.353783E-2,4.588851E-2,5.799783E-3,1.0420213E-1,-4.7250446E-2,-2.9287158E-2,-4.121438E-2,-4.228422E-2,-8.8246115E-2,-2.5355939E-2,-7.529585E-2,-5.6902677E-2,-6.695327E-2,2.181303E-3,5.2845895E-2,-1.06610596E-1,1.5927967E-2,4.6401024E-3,5.2386936E-2,-7.728929E-2,-9.7124785E-2,6.4048514E-2,-7.05029E-2,-1.2394102E-1,-1.0417841E-1,-7.087153E-2,-1.253208E-1,-5.7448805E-3,-5.728435E-2,1.1483502E-1,6.3418E-2,-6.0222484E-2,-1.0392851E-1,-1.12703376E-1,1.12311624E-1],"categories":[],"categories_nodes":[],"categories_segments":[],"categories_sizes":[],"default_left":[0,0,0,0,0,0,0,0,0,0,0,0,0,0,0,0,0,0,0,0,0,0,0,0,0,0,0,0,0,0,0,0,0,0,0,0,0,0,0,0,0,0,0,0,0,0,0,0,0,0,0,0,0,0,0,0,0,0,0,0,0,0,0,0,0,0,0,0,0,0,0,0,0,0,0,0,0,0,0,0,0,0,0,0,0,0,0,0,0,0,0,0,0,0,0,0,0,0,0,0,0,0,0,0,0,0,0,0,0,0,0],"id":9,"left_children":[1,3,5,7,9,11,13,15,17,19,21,23,25,27,29,-1,31,33,35,37,39,41,43,45,47,49,51,53,55,57,59,-1,-1,61,63,65,67,69,71,73,75,77,-1,79,-1,81,83,85,87,89,-1,91,93,95,97,99,101,103,105,107,109,-1,-1,-1,-1,-1,-1,-1,-1,-1,-1,-1,-1,-1,-1,-1,-1,-1,-1,-1,-1,-1,-1,-1,-1,-1,-1,-1,-1,-1,-1,-1,-1,-1,-1,-1,-1,-1,-1,-1,-1,-1,-1,-1,-1,-1,-1,-1,-1,-1,-1],"loss_changes":[8.205467E3,2.5747275E3,7.296084E2,2.6142432E3,3.3405083E3,1.2977441E2,6.6721826E2,2.7971191E0,1.2234795E3,1.012645E3,6.659922E2,6.062329E1,5.2981086E0,5.4680176E1,2.9725818E2,0E0,7.804899E-1,1.9002588E2,3.1502686E2,5.391618E0,2.3903809E1,3.6655304E1,4.9407135E2,1.885669E1,1.4232422E1,8.290606E0,1.0069003E1,3.6026123E1,2.9525879E1,2.0994516E2,4.333487E1,0E0,0E0,2.894043E0,1.0551315E1,1.1345215E1,2.7249662E1,7.378039E0,6.258774E-1,6.251465E0,1.0144043E0,2.4651937E1,0E0,1.2639648E1,0E0,1.44296875E1,2.218624E0,8.521103E0,3.9141846E0,3.1252487E0,0E0,1.5796612E1,1.1977741E1,2.5220703E1,4.6663235E1,1.6522705E1,4.2401794E1,2.2102428E1,1.4649277E1,2.7279541E1,3.5490936E1,0E0,0E0,0E0,0E0,0E0,0E0,0E0,0E0,0E0,0E0,0E0,0E0,0E0,0E0,0E0,0E0,0E0,0E0,0E0,0E0,0E0,0E0,0E0,0E0,0E0,0E0,0E0,0E0,0E0,0E0,0E0,0E0,0E0,0E0,0E0,0E0,0E0,0E0,0E0,0E0,0E0,0E0,0E0,0E0,0E0,0E0,0E0,0E0,0E0,0E0],"parents":[2147483647,0,0,1,1,2,2,3,3,4,4,5,5,6,6,7,7,8,8,9,9,10,10,11,11,12,12,13,13,14,14,16,16,17,17,18,18,19,19,20,20,21,21,22,22,23,23,24,24,25,25,26,26,27,27,28,28,29,29,30,30,33,33,34,34,35,35,36,36,37,37,38,38,39,39,40,40,41,41,43,43,45,45,46,46,47,47,48,48,49,49,51,51,52,52,53,53,54,54,55,55,56,56,57,57,58,58,59,59,60,60],"right_children":[2,4,6,8,10,12,14,16,18,20,22,24,26,28,30,-1,32,34,36,38,40,42,44,46,48,50,52,54,56,58,60,-1,-1,62,64,66,68,70,72,74,76,78,-1,80,-1,82,84,86,88,90,-1,92,94,96,98,100,102,104,106,108,110,-1,-1,-1,-1,-1,-1,-1,-1,-1,-1,-1,-1,-1,-1,-1,-1,-1,-1,-1,-1,-1,-1,-1,-1,-1,-1,-1,-1,-1,-1,-1,-1,-1,-1,-1,-1,-1,-1,-1,-1,-1,-1,-1,-1,-1,-1,-1,-1,-1,-1],"split_conditions":[5.04E0,2E0,1.036E1,1E0,6E0,6E0,6E0,4.5E-1,1E0,3E0,1.1E1,8.4E0,5.81E0,2.013E1,2.774E1,-1.0792996E-1,3.69E0,1.8E0,2.44E0,3.94E0,1.7E-1,8E0,1.2E1,3E0,1E0,7E0,6.16E0,1.965E1,2E0,7E0,8.548E1,-3.448103E-2,-8.1117734E-2,5E-2,4.01E0,5E-2,3.89E0,1.11E0,4.45E0,5E0,3.84E0,1E0,-1.7875573E-1,4.92E0,-1.08785406E-1,6.3E0,5.95E0,9.84E0,9.32E0,5.56E0,1.13398425E-1,1E0,8E0,1.155E1,1E0,3.109E1,6.4E1,2.149E1,2.013E1,4.889E1,7E0,8.897945E-2,9.950455E-2,3.845389E-2,9.322817E-3,3.236267E-2,3.883744E-2,8.486002E-3,-9.898697E-3,-5.618973E-3,3.6357187E-2,-8.2462415E-2,-3.2737844E-2,-1.1745311E-1,-4.2936802E-2,-8.460872E-2,-6.353783E-2,4.588851E-2,5.799783E-3,1.0420213E-1,-4.7250446E-2,-2.9287158E-2,-4.121438E-2,-4.228422E-2,-8.8246115E-2,-2.5355939E-2,-7.529585E-2,-5.6902677E-2,-6.695327E-2,2.181303E-3,5.2845895E-2,-1.06610596E-1,1.5927967E-2,4.6401024E-3,5.2386936E-2,-7.728929E-2,-9.7124785E-2,6.4048514E-2,-7.05029E-2,-1.2394102E-1,-1.0417841E-1,-7.087153E-2,-1.253208E-1,-5.7448805E-3,-5.728435E-2,1.1483502E-1,6.3418E-2,-6.0222484E-2,-1.0392851E-1,-1.12703376E-1,1.12311624E-1],"split_indices":[0,3,0,3,3,3,3,0,4,3,3,0,0,0,0,0,0,0,0,0,0,3,3,3,4,3,0,0,3,3,0,0,0,0,0,0,0,0,0,3,0,4,0,0,0,0,0,0,0,0,0,4,3,0,4,0,0,0,0,0,3,0,0,0,0,0,0,0,0,0,0,0,0,0,0,0,0,0,0,0,0,0,0,0,0,0,0,0,0,0,0,0,0,0,0,0,0,0,0,0,0,0,0,0,0,0,0,0,0,0,0],"split_type":[0,0,0,0,0,0,0,0,0,0,0,0,0,0,0,0,0,0,0,0,0,0,0,0,0,0,0,0,0,0,0,0,0,0,0,0,0,0,0,0,0,0,0,0,0,0,0,0,0,0,0,0,0,0,0,0,0,0,0,0,0,0,0,0,0,0,0,0,0,0,0,0,0,0,0,0,0,0,0,0,0,0,0,0,0,0,0,0,0,0,0,0,0,0,0,0,0,0,0,0,0,0,0,0,0,0,0,0,0,0,0],"sum_hessian":[6.491419E4,5.0152316E4,1.4761878E4,3.920886E4,1.0943456E4,6.7211304E3,8.0407476E3,1.3009027E3,3.7907957E4,4.5153467E3,6.428109E3,6.299496E3,4.2163425E2,6.656894E3,1.383853E3,1.2806824E3,2.0220337E1,5.037478E3,3.2870477E4,1.0897617E3,3.4255852E3,5.051375E3,1.376734E3,4.3749272E3,1.9245688E3,6.2150677E1,3.5948355E2,4.1196064E3,2.537288E3,7.518278E2,6.3202527E2,8.326703E0,1.1893633E1,4.434889E3,6.0258887E2,2.9610217E4,3.2602615E3,1.0753832E3,1.4378486E1,3.2866753E3,1.3890994E2,5.0417354E3,9.639939E0,1.2575211E3,1.19212906E2,4.2794414E3,9.548599E1,2.2466983E2,1.699899E3,5.0724613E1,1.1426064E1,4.1353607E1,3.1812994E2,3.9566978E3,1.6290862E2,1.9073162E3,6.2997174E2,5.0379062E2,2.4803717E2,6.014217E2,3.060353E1,4.0718745E3,3.630148E2,4.2608353E2,1.7650533E2,2.6565693E4,3.0445237E3,1.8048287E3,1.4554326E3,1.0327328E3,4.2650375E1,7.8762603E0,6.5022254E0,3.2738867E3,1.2788628E1,6.420377E1,7.470616E1,1.573989E2,4.8843364E3,1.2525149E3,5.006192E0,1.6927117E3,2.5867297E3,1.5345475E1,8.014052E1,1.8297467E2,4.169515E1,8.495454E2,8.5035364E2,3.1969975E1,1.875464E1,1.7534782E1,2.3818827E1,2.5272145E2,6.54085E1,8.4107574E2,3.1156218E3,3.1152853E1,1.3175577E2,1.1479119E3,7.594044E2,4.0280417E2,2.271676E2,3.9960782E2,1.0418281E2,1.5421095E2,9.3826225E1,3.5477292E2,2.4664879E2,9.295241E0,2.1308289E1],"tree_param":{"num_deleted":"0","num_feature":"6","num_nodes":"111","size_leaf_vector":"1"}},{"base_weights":[6.219494E-3,1.808957E-1,-6.184515E-1,2.901873E-1,-2.1314597E-1,-4.000623E-1,-7.874496E-1,-9.836397E-1,3.3318764E-1,-8.070199E-1,1.9967438E-1,-4.310969E-1,5.2999634E-2,-9.1013265E-1,-2.0695128E-1,-9.882259E-2,-5.9547264E-2,3.7823534E-1,1.5301396E-2,-2.8409388E-2,-1.0630387E0,4.4336095E-2,8.064096E-1,-3.7102598E-1,-5.494527E-1,-2.9103355E-2,3.3810607E-1,-8.0868715E-1,-1.0072408E0,1.8928117E-1,-6.8045306E-1,3.707668E-2,4.5009565E-1,1.2122801E-1,-1.3093731E-1,-4.7224737E-3,2.3064773E-1,-1.0802691E0,-6.612079E-1,4.9150858E-2,-1.7915453E-1,9.929387E-1,-1.0008108E-1,-3.621984E-1,-7.5716436E-1,-4.7635975E-1,-5.8768874E-1,-8.065216E-2,-1.2191757E-2,-3.8110223E-1,5.990365E-1,-8.409127E-1,-2.3243146E-1,-1.0607399E0,-8.0841047E-1,-1.2763657E-1,8.9713645E-1,-7.34909E-1,4.327833E-1,5.597965E-2,3.0064298E-2,1.5102415E-2,4.6627005E-3,-7.405383E-3,-2.1430094E-2,6.795754E-2,-1.2886347E-2,-1.0833382E-1,-9.4595775E-2,3.2836312E-4,-6.861605E-2,2.8500794E-3,2.8286517E-2,9.998983E-2,2.5089506E-2,-3.1904288E-2,-3.8992513E-2,-7.0467E-2,-1.2403885E-1,-6.0554124E-2,-4.2364888E-2,-6.742237E-2,-5.4941464E-2,1.34793585E-2,-6.198792E-3,1.13558434E-1,-1.0146498E-1,8.8563815E-2,2.8424544E-2,-7.001923E-2,-8.9365385E-2,2.8777549E-2,-7.7865556E-2,-1.0184026E-1,-1.2197607E-1,-6.314994E-2,-1.2094349E-1,-5.786583E-4,-4.9683373E-2,1.13596536E-1,5.4181363E-2,-5.2840043E-2,-9.1211855E-2,-9.480332E-2,1.05192505E-1],"categories":[],"categories_nodes":[],"categories_segments":[],"categories_sizes":[],"default_left":[0,0,0,0,0,0,0,0,0,0,0,0,0,0,0,0,0,0,0,0,0,0,0,0,0,0,0,0,0,0,0,0,0,0,0,0,0,0,0,0,0,0,0,0,0,0,0,0,0,0,0,0,0,0,0,0,0,0,0,0,0,0,0,0,0,0,0,0,0,0,0,0,0,0,0,0,0,0,0,0,0,0,0,0,0,0,0,0,0,0,0,0,0,0,0,0,0,0,0,0,0,0,0,0,0],"id":10,"left_children":[1,3,5,7,9,11,13,15,17,19,21,23,25,27,29,-1,-1,31,33,35,37,39,41,43,45,47,49,51,53,55,57,-1,59,61,63,-1,65,67,69,71,-1,73,-1,75,77,79,81,-1,83,85,87,89,91,93,95,97,99,101,103,-1,-1,-1,-1,-1,-1,-1,-1,-1,-1,-1,-1,-1,-1,-1,-1,-1,-1,-1,-1,-1,-1,-1,-1,-1,-1,-1,-1,-1,-1,-1,-1,-1,-1,-1,-1,-1,-1,-1,-1,-1,-1,-1,-1,-1,-1],"loss_changes":[6.949598E3,2.1435408E3,5.133574E2,2.1346687E3,2.6498809E3,8.542297E1,5.5852295E2,1.677124E0,5.3977295E2,8.8349634E2,6.0096295E2,4.0211304E1,9.145241E0,6.298242E1,2.5716888E2,0E0,0E0,1.7552246E1,7.250633E1,5.361818E0,2.2380127E1,4.4973774E1,4.3913666E2,1.2589233E1,5.062805E0,3.9860425E0,1.6618351E1,5.871631E1,3.4295654E1,1.6761285E2,3.8168976E1,0E0,5.0715515E1,6.026581E0,9.308132E0,0E0,1.2112113E1,2.9248047E-1,2.318966E0,2.443983E1,0E0,5.8359375E0,0E0,4.29245E0,1.2421913E0,4.250229E0,3.772461E0,0E0,2.1929762E0,2.4081043E1,5.56522E0,2.1669434E1,4.835739E1,1.6268066E1,4.924408E1,2.3238226E1,1.8990234E1,2.1315125E1,2.642887E1,0E0,0E0,0E0,0E0,0E0,0E0,0E0,0E0,0E0,0E0,0E0,0E0,0E0,0E0,0E0,0E0,0E0,0E0,0E0,0E0,0E0,0E0,0E0,0E0,0E0,0E0,0E0,0E0,0E0,0E0,0E0,0E0,0E0,0E0,0E0,0E0,0E0,0E0,0E0,0E0,0E0,0E0,0E0,0E0,0E0,0E0],"parents":[2147483647,0,0,1,1,2,2,3,3,4,4,5,5,6,6,7,7,8,8,9,9,10,10,11,11,12,12,13,13,14,14,17,17,18,18,19,19,20,20,21,21,22,22,23,23,24,24,25,25,26,26,27,27,28,28,29,29,30,30,32,32,33,33,34,34,36,36,37,37,38,38,39,39,41,41,43,43,44,44,45,45,46,46,48,48,49,49,50,50,51,51,52,52,53,53,54,54,55,55,56,56,57,57,58,58],"right_children":[2,4,6,8,10,12,14,16,18,20,22,24,26,28,30,-1,-1,32,34,36,38,40,42,44,46,48,50,52,54,56,58,-1,60,62,64,-1,66,68,70,72,-1,74,-1,76,78,80,82,-1,84,86,88,90,92,94,96,98,100,102,104,-1,-1,-1,-1,-1,-1,-1,-1,-1,-1,-1,-1,-1,-1,-1,-1,-1,-1,-1,-1,-1,-1,-1,-1,-1,-1,-1,-1,-1,-1,-1,-1,-1,-1,-1,-1,-1,-1,-1,-1,-1,-1,-1,-1,-1,-1],"split_conditions":[5.5E0,2E0,1.036E1,1E0,5E0,6E0,6E0,2.94E0,2.21E0,3E0,1.1E1,8.4E0,8E0,1.692E1,2.774E1,-9.882259E-2,-5.9547264E-2,5E-2,4.11E0,5E-2,9E-2,8E0,1.2E1,3E0,9.01E0,5.56E0,6.16E0,1.648E1,2E0,7E0,8.548E1,3.707668E-2,1.28E0,3.59E0,4.92E0,-4.7224737E-3,1.84E0,4E0,6.2E-1,1.3E-1,-1.7915453E-1,4.98E0,-1.0008108E-1,6.57E0,8.32E0,8.58E0,9.42E0,-8.065216E-2,6.71E0,5.95E0,8.24E0,1.155E1,1.664E1,3.428E1,6.4E1,2.056E1,1.996E1,4.329E1,8E0,5.597965E-2,3.0064298E-2,1.5102415E-2,4.6627005E-3,-7.405383E-3,-2.1430094E-2,6.795754E-2,-1.2886347E-2,-1.0833382E-1,-9.4595775E-2,3.2836312E-4,-6.861605E-2,2.8500794E-3,2.8286517E-2,9.998983E-2,2.5089506E-2,-3.1904288E-2,-3.8992513E-2,-7.0467E-2,-1.2403885E-1,-6.0554124E-2,-4.2364888E-2,-6.742237E-2,-5.4941464E-2,1.34793585E-2,-6.198792E-3,1.13558434E-1,-1.0146498E-1,8.8563815E-2,2.8424544E-2,-7.001923E-2,-8.9365385E-2,2.8777549E-2,-7.7865556E-2,-1.0184026E-1,-1.2197607E-1,-6.314994E-2,-1.2094349E-1,-5.786583E-4,-4.9683373E-2,1.13596536E-1,5.4181363E-2,-5.2840043E-2,-9.1211855E-2,-9.480332E-2,1.05192505E-1],"split_indices":[0,3,0,3,3,3,3,0,0,3,3,0,3,0,0,0,0,0,0,0,0,3,3,3,0,0,0,0,3,3,0,0,0,0,0,0,0,3,0,0,0,0,0,0,0,0,0,0,0,0,0,0,0,0,0,0,0,0,3,0,0,0,0,0,0,0,0,0,0,0,0,0,0,0,0,0,0,0,0,0,0,0,0,0,0,0,0,0,0,0,0,0,0,0,0,0,0,0,0,0,0,0,0,0,0],"split_type":[0,0,0,0,0,0,0,0,0,0,0,0,0,0,0,0,0,0,0,0,0,0,0,0,0,0,0,0,0,0,0,0,0,0,0,0,0,0,0,0,0,0,0,0,0,0,0,0,0,0,0,0,0,0,0,0,0,0,0,0,0,0,0,0,0,0,0,0,0,0,0,0,0,0,0,0,0,0,0,0,0,0,0,0,0,0,0,0,0,0,0,0,0,0,0,0,0,0,0,0,0,0,0,0,0],"sum_hessian":[6.3688473E4,4.9771594E4,1.3916878E4,3.8964613E4,1.0806981E4,6.0727227E3,7.8441553E3,1.2716553E3,3.7692957E4,4.4312837E3,6.3756978E3,5.683456E3,3.8926675E2,6.475128E3,1.3690272E3,1.2552783E3,1.6376978E1,3.3014305E4,4.678651E3,1.096795E3,3.3344885E3,5.076953E3,1.2987446E3,3.7727488E3,1.9107072E3,3.029292E2,8.633755E1,3.1714011E3,3.303727E3,7.456543E2,6.233729E2,2.9911709E4,3.1025964E3,2.713398E3,1.965253E3,1.023291E3,7.350402E1,3.1957659E3,1.3872247E2,5.0646436E3,1.2309251E1,1.1776465E3,1.2109815E2,3.6903218E3,8.242705E1,6.608563E2,1.2498508E3,5.4554257E0,2.974738E2,2.2861992E1,6.347556E1,3.0030068E3,1.6839429E2,2.5998518E3,7.038751E2,5.15622E2,2.3003226E2,5.946256E2,2.8747316E1,1.7876699E3,1.3149264E3,1.9382311E3,7.751668E2,1.1692794E3,7.9597363E2,3.2291195E1,4.121283E1,3.1174668E3,7.829926E1,5.052112E0,1.3367035E2,4.6545117E3,4.1013214E2,1.1663597E3,1.1286793E1,1.44842E3,2.2419019E3,7.656751E1,5.859534E0,1.8847136E2,4.7238495E2,3.7818564E2,8.7166516E2,7.484472E1,2.2262907E2,6.5026035E0,1.6359386E1,3.2276237E1,3.119932E1,8.2256586E2,2.180441E3,8.64936E1,8.190068E1,2.0590576E3,5.4079425E2,4.9019937E2,2.1367577E2,3.884376E2,1.2718444E2,1.3625317E2,9.377908E1,2.7645023E2,3.1817538E2,8.735069E0,2.0012247E1],"tree_param":{"num_deleted":"0","num_feature":"6","num_nodes":"105","size_leaf_vector":"1"}},{"base_weights":[6.944806E-3,-5.092336E-1,7.437552E-2,-7.366052E-1,5.1706976E-1,5.65178E-1,1.2720076E-2,-5.733334E-1,-9.364555E-1,-5.0297153E-1,5.611236E-1,-1.3580821E-1,5.717361E-1,4.7984757E-2,-1.7526811E-1,-8.166531E-1,-4.288545E-2,-8.8073075E-1,-1.1952298E0,4.5044273E-2,-1.0487759E-1,5.698934E-1,-1.0972134E-1,5.563299E-1,1.00260906E-1,-1.1303183E0,5.238362E-2,-9.4008934E-1,5.8481287E-2,-1.3301896E-1,-7.6972806E-1,-1.1679491E-1,-8.3770937E-1,-1.5603723E-1,-1.2440847E0,6.049288E-2,4.7085375E-2,5.816778E-1,1.6982743E-1,-1.1538483E-1,-5.724622E-2,6.7696765E-2,-7.634688E-2,-9.808419E-1,-7.2336936E-1,-2.0089695E-1,2.8530487E-1,-4.910416E-2,-8.133788E-2,-7.419227E-2,-8.4914595E-2,-8.817174E-2,1.145805E-2,-1.2877814E-1,-4.583818E-2,5.9747774E-2,2.5339445E-2,-2.1777129E-2,5.2861374E-2,7.603085E-3,-3.4411002E-2,-1.3312048E-2,5.2606415E-2,-9.878583E-2,-4.3819603E-2,-7.336985E-2,-4.355952E-2,-2.9860726E-2,7.465027E-2,3.0900886E-2,-7.448707E-2],"categories":[],"categories_nodes":[],"categories_segments":[],"categories_sizes":[],"default_left":[0,0,0,0,0,0,0,0,0,0,0,0,0,0,0,0,0,0,0,0,0,0,0,0,0,0,0,0,0,0,0,0,0,0,0,0,0,0,0,0,0,0,0,0,0,0,0,0,0,0,0,0,0,0,0,0,0,0,0,0,0,0,0,0,0,0,0,0,0,0,0],"id":11,"left_children":[1,3,5,7,9,11,13,15,17,19,21,-1,23,25,27,29,-1,31,33,-1,-1,35,-1,37,-1,39,41,43,45,-1,47,-1,49,51,53,-1,-1,55,57,-1,-1,59,61,63,65,67,69,-1,-1,-1,-1,-1,-1,-1,-1,-1,-1,-1,-1,-1,-1,-1,-1,-1,-1,-1,-1,-1,-1,-1,-1],"loss_changes":[2.1757695E3,1.6857812E3,1.673049E3,1.9240576E2,5.9171814E1,7.860193E1,3.2563474E2,1.1414563E2,3.7263428E1,2.8979948E1,1.890213E1,0E0,4.0266357E1,2.1444135E2,1.3871759E3,2.8189758E1,0E0,2.608374E1,2.3566406E1,0E0,0E0,4.055176E0,0E0,5.809485E1,0E0,1.359314E0,8.12374E1,1.5332031E1,3.4974115E2,0E0,1.3142151E1,0E0,1.4606934E0,4.4523683E0,1.4751221E1,0E0,0E0,2.8759888E1,5.115106E1,0E0,0E0,1.26420456E2,1.4991376E2,5.3771973E0,5.462494E-1,2.569614E2,7.766931E1,0E0,0E0,0E0,0E0,0E0,0E0,0E0,0E0,0E0,0E0,0E0,0E0,0E0,0E0,0E0,0E0,0E0,0E0,0E0,0E0,0E0,0E0,0E0,0E0],"parents":[2147483647,0,0,1,1,2,2,3,3,4,4,5,5,6,6,7,7,8,8,9,9,10,10,12,12,13,13,14,14,15,15,17,17,18,18,21,21,23,23,25,25,26,26,27,27,28,28,30,30,32,32,33,33,34,34,37,37,38,38,41,41,42,42,43,43,44,44,45,45,46,46],"right_children":[2,4,6,8,10,12,14,16,18,20,22,-1,24,26,28,30,-1,32,34,-1,-1,36,-1,38,-1,40,42,44,46,-1,48,-1,50,52,54,-1,-1,56,58,-1,-1,60,62,64,66,68,70,-1,-1,-1,-1,-1,-1,-1,-1,-1,-1,-1,-1,-1,-1,-1,-1,-1,-1,-1,-1,-1,-1,-1,-1],"split_conditions":[5E0,1.1E1,1E0,2E0,4E0,1E0,3E0,1E0,4E0,1E0,1.2E1,-1.3580821E-1,1.1E1,1E0,6E0,3E0,-4.288545E-2,4E0,1E0,4.5044273E-2,-1.0487759E-1,1E0,-1.0972134E-1,2E0,1.00260906E-1,6E0,6E0,6E0,6E0,-1.3301896E-1,4E0,-1.1679491E-1,1E0,4E0,7E0,6.049288E-2,4.7085375E-2,6E0,4E0,-1.1538483E-1,-5.724622E-2,2E0,2E0,5E0,7E0,1.1E1,1.2E1,-4.910416E-2,-8.133788E-2,-7.419227E-2,-8.4914595E-2,-8.817174E-2,1.145805E-2,-1.2877814E-1,-4.583818E-2,5.9747774E-2,2.5339445E-2,-2.1777129E-2,5.2861374E-2,7.603085E-3,-3.4411002E-2,-1.3312048E-2,5.2606415E-2,-9.878583E-2,-4.3819603E-2,-7.336985E-2,-4.355952E-2,-2.9860726E-2,7.465027E-2,3.0900886E-2,-7.448707E-2],"split_indices":[2,3,4,3,2,3,3,3,3,4,3,0,3,3,3,2,0,2,4,0,0,4,0,3,0,2,2,2,2,0,2,0,4,2,3,0,0,2,3,0,0,3,3,3,2,3,3,0,0,0,0,0,0,0,0,0,0,0,0,0,0,0,0,0,0,0,0,0,0,0,0],"split_type":[0,0,0,0,0,0,0,0,0,0,0,0,0,0,0,0,0,0,0,0,0,0,0,0,0,0,0,0,0,0,0,0,0,0,0,0,0,0,0,0,0,0,0,0,0,0,0,0,0,0,0,0,0,0,0,0,0,0,0,0,0,0,0,0,0,0,0,0,0,0,0],"sum_hessian":[6.250875E4,7.2215586E3,5.528719E4,5.9120586E3,1.3095002E3,6.169253E3,4.9117938E4,3.255929E3,2.6561296E3,5.3782383E1,1.2557178E3,2.026476E1,6.1489883E3,4.1359973E4,7.757967E3,1.2113009E3,2.044628E3,2.1891243E3,4.670053E2,1.9643581E1,3.41388E1,1.249765E3,5.9528236E0,5.9389287E3,2.1005992E2,1.5287968E2,4.1207094E4,1.8153085E3,5.942658E3,9.912733E1,1.1121736E3,2.8177756E2,1.9073467E3,2.1157545E1,4.4584775E2,9.1941394E2,3.3035107E2,5.5729355E3,3.6599313E2,1.4566718E2,7.2125206E0,3.682683E4,4.380263E3,1.5250153E3,2.9029318E2,2.772431E3,3.1702273E3,1.5226866E2,9.5990497E2,2.1046637E2,1.6968802E3,5.1335125E0,1.6024033E1,4.2175296E2,2.4094788E1,5.3162495E3,2.5668607E2,1.7612135E2,1.8987178E2,3.6097117E4,7.2971277E2,4.0037163E3,3.7654697E2,1.5047385E3,2.0276718E1,2.7873877E2,1.1554437E1,2.513849E3,2.585817E2,3.0996064E3,7.0620926E1],"tree_param":{"num_deleted":"0","num_feature":"6","num_nodes":"71","size_leaf_vector":"1"}},{"base_weights":[4.3056086E-3,-4.701146E-1,6.550216E-2,-6.7640114E-1,4.6971264E-1,5.221522E-1,1.0066839E-2,-5.193093E-1,-8.781371E-1,-4.237843E-1,5.1053286E-1,-1.2374722E-1,5.285312E-1,4.132116E-2,-1.5844885E-1,-7.649942E-1,-3.7809685E-1,-1.1533898E0,-8.28593E-1,4.61364E-2,-9.2220776E-2,5.6268346E-2,3.6999594E-2,5.1444167E-1,9.361564E-2,-1.0076307E0,4.516633E-2,-8.6784136E-1,5.51119E-2,-1.2875412E-1,-7.175129E-1,-1.7052425E-1,-3.7325278E-1,-1.188375E-1,4.781966E-3,-7.8374845E-1,-1.0988984E0,5.411553E-1,1.2237927E-1,-1.03015006E-1,-4.693828E-2,5.764951E-2,-5.921103E-2,-9.0748507E-1,-6.584141E-1,-1.919038E-1,2.74039E-1,-5.387501E-2,-7.797357E-2,-3.6875423E-2,-6.33682E-2,-6.3285194E-2,-8.009366E-2,1.6519777E-2,-1.1661156E-1,5.5461943E-2,2.6228338E-2,-1.898386E-2,4.44882E-2,6.486834E-3,-2.9555751E-2,-1.1179444E-2,5.1284876E-2,-9.212329E-2,-6.3030474E-2,-6.699097E-2,-3.1038685E-2,-2.797888E-2,7.048858E-2,2.9645516E-2,-6.684792E-2],"categories":[],"categories_nodes":[],"categories_segments":[],"categories_sizes":[],"default_left":[0,0,0,0,0,0,0,0,0,0,0,0,0,0,0,0,0,0,0,0,0,0,0,0,0,0,0,0,0,0,0,0,0,0,0,0,0,0,0,0,0,0,0,0,0,0,0,0,0,0,0,0,0,0,0,0,0,0,0,0,0,0,0,0,0,0,0,0,0,0,0],"id":12,"left_children":[1,3,5,7,9,11,13,15,17,19,21,-1,23,25,27,29,31,33,35,-1,-1,-1,-1,37,-1,39,41,43,45,-1,47,-1,49,-1,-1,51,53,55,57,-1,-1,59,61,63,65,67,69,-1,-1,-1,-1,-1,-1,-1,-1,-1,-1,-1,-1,-1,-1,-1,-1,-1,-1,-1,-1,-1,-1,-1,-1],"loss_changes":[1.8031674E3,1.3760625E3,1.3925889E3,1.8396338E2,4.6821198E1,6.749951E1,2.5838425E2,1.1330151E2,3.3766968E1,2.5296177E1,8.751068E0,0E0,3.3601196E1,1.6695999E2,1.1628455E3,2.8701355E1,1.2742279E1,1.6271606E1,2.533789E1,0E0,0E0,0E0,0E0,6.0034058E1,0E0,1.3490143E0,5.3728333E1,1.4148193E1,3.191302E2,0E0,1.178009E1,0E0,2.197052E0,0E0,0E0,4.3103027E0,2.6113617E1,2.0025146E1,3.707237E1,0E0,0E0,9.392319E1,1.3256479E2,5.0998535E0,9.376221E-1,2.1874002E2,6.629379E1,0E0,0E0,0E0,0E0,0E0,0E0,0E0,0E0,0E0,0E0,0E0,0E0,0E0,0E0,0E0,0E0,0E0,0E0,0E0,0E0,0E0,0E0,0E0,0E0],"parents":[2147483647,0,0,1,1,2,2,3,3,4,4,5,5,6,6,7,7,8,8,9,9,10,10,12,12,13,13,14,14,15,15,16,16,17,17,18,18,23,23,25,25,26,26,27,27,28,28,30,30,32,32,35,35,36,36,37,37,38,38,41,41,42,42,43,43,44,44,45,45,46,46],"right_children":[2,4,6,8,10,12,14,16,18,20,22,-1,24,26,28,30,32,34,36,-1,-1,-1,-1,38,-1,40,42,44,46,-1,48,-1,50,-1,-1,52,54,56,58,-1,-1,60,62,64,66,68,70,-1,-1,-1,-1,-1,-1,-1,-1,-1,-1,-1,-1,-1,-1,-1,-1,-1,-1,-1,-1,-1,-1,-1,-1],"split_conditions":[5E0,1.1E1,1E0,3E0,4E0,1E0,3E0,1E0,4E0,1E0,1E0,-1.2374722E-1,1.1E1,1E0,6E0,3E0,4E0,7E0,6E0,4.61364E-2,-9.2220776E-2,5.6268346E-2,3.6999594E-2,2E0,9.361564E-2,6E0,6E0,6E0,6E0,-1.2875412E-1,1E0,-1.7052425E-1,2E0,-1.188375E-1,4.781966E-3,1E0,1E0,6E0,4E0,-1.03015006E-1,-4.693828E-2,2E0,2E0,4E0,7E0,1.1E1,1.2E1,-5.387501E-2,-7.797357E-2,-3.6875423E-2,-6.33682E-2,-6.3285194E-2,-8.009366E-2,1.6519777E-2,-1.1661156E-1,5.5461943E-2,2.6228338E-2,-1.898386E-2,4.44882E-2,6.486834E-3,-2.9555751E-2,-1.1179444E-2,5.1284876E-2,-9.212329E-2,-6.3030474E-2,-6.699097E-2,-3.1038685E-2,-2.797888E-2,7.048858E-2,2.9645516E-2,-6.684792E-2],"split_indices":[2,3,4,3,2,3,3,3,2,4,4,0,3,3,3,2,2,3,3,0,0,0,0,3,0,2,2,2,2,0,4,0,3,0,0,4,4,2,3,0,0,3,3,3,2,3,3,0,0,0,0,0,0,0,0,0,0,0,0,0,0,0,0,0,0,0,0,0,0,0,0],"split_type":[0,0,0,0,0,0,0,0,0,0,0,0,0,0,0,0,0,0,0,0,0,0,0,0,0,0,0,0,0,0,0,0,0,0,0,0,0,0,0,0,0,0,0,0,0,0,0,0,0,0,0,0,0,0,0,0,0,0,0,0,0,0,0,0,0,0,0,0,0,0,0],"sum_hessian":[6.210571E4,7.0950854E3,5.501063E4,5.818286E3,1.2767994E3,5.9542124E3,4.9056414E4,3.2730974E3,2.5451885E3,5.537331E1,1.221426E3,2.0810268E1,5.9334023E3,4.13821E4,7.6743135E3,1.1930251E3,2.0800723E3,3.8484116E2,2.1603474E3,1.997469E1,3.539862E1,8.886578E2,3.3276828E2,5.737353E3,1.9604926E2,1.501879E2,4.1231914E4,1.7750388E3,5.899275E3,9.71992E1,1.0958259E3,6.2880473E0,2.0737842E3,3.7396024E2,1.0880907E1,1.8562833E3,3.040641E2,5.3710127E3,3.6634042E2,1.4327943E2,6.9084673E0,3.682787E4,4.404043E3,1.4897097E3,2.8532904E2,2.7718813E3,3.1273936E3,2.8543735E2,8.103886E2,2.0409456E3,3.2838745E1,1.936887E2,1.6625946E3,1.5278401E1,2.8878568E2,5.1226963E3,2.4831635E2,1.8634726E2,1.7999315E2,3.609106E4,7.3681067E2,4.0340408E3,3.7000217E2,1.4170994E3,7.261035E1,2.7531046E2,1.0018579E1,2.5251096E3,2.4677162E2,3.0554111E3,7.19822E1],"tree_param":{"num_deleted":"0","num_feature":"6","num_nodes":"71","size_leaf_vector":"1"}},{"base_weights":[4.4142962E-3,1.711518E-1,-5.3887916E-1,-4.440576E-1,2.4480897E-1,-3.4582287E-1,-7.140158E-1,-6.732887E-1,8.4848714E-1,7.54113E-1,1.8371548E-1,-3.7407824E-1,9.102384E-2,-8.5743004E-1,-3.4540898E-1,-5.6771713E-1,-8.2458913E-1,1.00789525E-1,4.559052E-1,8.0504066E-1,2.5610745E-1,2.5842592E-1,-1.2579304E-1,-2.7259797E-1,-4.5859233E-1,-7.705642E-1,2.0487608E-1,-1.7292485E-1,-9.4680756E-1,-1.2453674E-2,-6.4359087E-1,-7.610775E-1,-4.3367326E-1,-1.1486517E0,-7.7778643E-1,5.1275265E-1,-1.0936045E-1,8.609737E-1,2.7753097E-1,4.5527035E-1,8.0287226E-2,2.8829905E-1,-2.3426162E-3,-4.1131958E-1,2.3942645E-1,-2.959963E-1,-1.3740128E-1,-3.998623E-1,-5.0896734E-1,-9.640027E-1,6.869947E-2,6.566653E-2,1.1305382E-1,6.527699E-1,-8.1192756E-1,-1.0153507E0,-7.093713E-1,-2.1749926E-1,8.881368E-1,-4.6377075E-1,-8.904885E-1,-1.2497636E-1,-7.1436405E-2,-4.4942573E-2,2.3096435E-2,-1.19952284E-1,1.5473251E-2,-7.8673095E-2,-5.730479E-2,1.3546665E-1,4.8002675E-2,-1.3208148E-1,8.722838E-2,-3.1985983E-2,6.69427E-2,4.344227E-2,9.506675E-2,4.816962E-3,9.76746E-2,-1.0485705E-1,2.9409979E-2,6.906739E-3,-1.0291616E-2,-7.137162E-2,-1.5653618E-2,-2.7857882E-3,2.9823247E-2,-1.3764285E-2,-3.1745967E-2,-1.5941069E-2,9.902506E-2,-4.9182054E-2,-3.710231E-2,-5.224895E-2,-1.9386793E-2,-1.348909E-1,-1.0901414E-2,1.7077727E-2,-1.9726574E-3,1.1262298E-1,4.0229093E-2,-3.2466866E-2,-1.2122128E-1,-8.840388E-2,-1.0848244E-1,-5.452178E-2,-8.142126E-2,-6.758786E-2,-1.0593103E-2,1.0336701E-1,4.5644686E-2,2.7748508E-2,-6.33892E-2,-8.187637E-2,-1.2496664E-1],"categories":[],"categories_nodes":[],"categories_segments":[],"categories_sizes":[],"default_left":[0,0,0,0,0,0,0,0,0,0,0,0,0,0,0,0,0,0,0,0,0,0,0,0,0,0,0,0,0,0,0,0,0,0,0,0,0,0,0,0,0,0,0,0,0,0,0,0,0,0,0,0,0,0,0,0,0,0,0,0,0,0,0,0,0,0,0,0,0,0,0,0,0,0,0,0,0,0,0,0,0,0,0,0,0,0,0,0,0,0,0,0,0,0,0,0,0,0,0,0,0,0,0,0,0,0,0,0,0,0,0,0,0,0,0],"id":13,"left_children":[1,3,5,7,9,11,13,15,17,19,21,23,25,27,29,31,33,-1,35,37,39,41,43,45,47,49,51,53,55,57,59,61,63,65,67,69,-1,71,73,75,77,79,81,83,85,87,89,91,93,95,-1,97,-1,99,101,103,105,107,109,111,113,-1,-1,-1,-1,-1,-1,-1,-1,-1,-1,-1,-1,-1,-1,-1,-1,-1,-1,-1,-1,-1,-1,-1,-1,-1,-1,-1,-1,-1,-1,-1,-1,-1,-1,-1,-1,-1,-1,-1,-1,-1,-1,-1,-1,-1,-1,-1,-1,-1,-1,-1,-1,-1,-1],"loss_changes":[5.5779624E3,2.1351323E3,4.886582E2,1.493346E3,1.309138E3,8.495569E1,4.0045483E2,6.789368E1,4.7062195E1,1.1409033E2,8.6884875E2,5.529834E1,4.1236588E1,3.3368213E2,2.109678E2,6.509094E1,2.5751465E1,0E0,2.0038399E1,1.2037842E2,1.4655334E1,2.3578137E2,7.6203186E2,9.255997E0,1.022345E1,1.450264E1,4.7692184E1,3.336941E2,7.782715E1,1.8577768E2,4.935794E1,2.2667542E1,1.5735107E1,1.4746246E1,2.3659058E0,5.245308E0,0E0,9.23457E1,9.2310455E1,1.616539E0,6.4039984E0,2.1090015E2,2.2357075E1,3.1585828E2,5.040851E1,8.468201E0,1.0965211E1,4.145355E0,7.9664307E0,1.4251663E1,0E0,2.9050846E0,0E0,3.228237E1,6.9121735E1,3.3186523E1,1.8220154E1,4.183386E1,1.1249985E1,8.223332E1,1.1118988E1,0E0,0E0,0E0,0E0,0E0,0E0,0E0,0E0,0E0,0E0,0E0,0E0,0E0,0E0,0E0,0E0,0E0,0E0,0E0,0E0,0E0,0E0,0E0,0E0,0E0,0E0,0E0,0E0,0E0,0E0,0E0,0E0,0E0,0E0,0E0,0E0,0E0,0E0,0E0,0E0,0E0,0E0,0E0,0E0,0E0,0E0,0E0,0E0,0E0,0E0,0E0,0E0,0E0,0E0],"parents":[2147483647,0,0,1,1,2,2,3,3,4,4,5,5,6,6,7,7,8,8,9,9,10,10,11,11,12,12,13,13,14,14,15,15,16,16,18,18,19,19,20,20,21,21,22,22,23,23,24,24,25,25,26,26,27,27,28,28,29,29,30,30,31,31,32,32,33,33,34,34,35,35,37,37,38,38,39,39,40,40,41,41,42,42,43,43,44,44,45,45,46,46,47,47,48,48,49,49,51,51,53,53,54,54,55,55,56,56,57,57,58,58,59,59,60,60],"right_children":[2,4,6,8,10,12,14,16,18,20,22,24,26,28,30,32,34,-1,36,38,40,42,44,46,48,50,52,54,56,58,60,62,64,66,68,70,-1,72,74,76,78,80,82,84,86,88,90,92,94,96,-1,98,-1,100,102,104,106,108,110,112,114,-1,-1,-1,-1,-1,-1,-1,-1,-1,-1,-1,-1,-1,-1,-1,-1,-1,-1,-1,-1,-1,-1,-1,-1,-1,-1,-1,-1,-1,-1,-1,-1,-1,-1,-1,-1,-1,-1,-1,-1,-1,-1,-1,-1,-1,-1,-1,-1,-1,-1,-1,-1,-1,-1],"split_conditions":[4.92E0,5E0,1.036E1,1.1E1,1E0,6E0,2E0,3E0,1E0,2.34E0,2E0,7.07E0,5E0,5E0,2.608E1,1E0,4E0,1.00789525E-1,1.2E1,2E0,3.54E0,2.39E0,6E0,6E0,8.4E0,9.22E0,7E0,2.31E1,6E0,7E0,5.333E1,3E0,3.48E0,7E0,9E-2,4E0,-1.0936045E-1,1E0,4E0,7E0,7E0,1E0,3.89E0,5E0,5E0,1E0,2E0,7.38E0,2E0,1E0,6.869947E-2,7.15E0,1.1305382E-1,1E0,3.428E1,1.36E1,1.395E1,5E0,2.149E1,1E0,9.938E1,-1.2497636E-1,-7.1436405E-2,-4.4942573E-2,2.3096435E-2,-1.19952284E-1,1.5473251E-2,-7.8673095E-2,-5.730479E-2,1.3546665E-1,4.8002675E-2,-1.3208148E-1,8.722838E-2,-3.1985983E-2,6.69427E-2,4.344227E-2,9.506675E-2,4.816962E-3,9.76746E-2,-1.0485705E-1,2.9409979E-2,6.906739E-3,-1.0291616E-2,-7.137162E-2,-1.5653618E-2,-2.7857882E-3,2.9823247E-2,-1.3764285E-2,-3.1745967E-2,-1.5941069E-2,9.902506E-2,-4.9182054E-2,-3.710231E-2,-5.224895E-2,-1.9386793E-2,-1.348909E-1,-1.0901414E-2,1.7077727E-2,-1.9726574E-3,1.1262298E-1,4.0229093E-2,-3.2466866E-2,-1.2122128E-1,-8.840388E-2,-1.0848244E-1,-5.452178E-2,-8.142126E-2,-6.758786E-2,-1.0593103E-2,1.0336701E-1,4.5644686E-2,2.7748508E-2,-6.33892E-2,-8.187637E-2,-1.2496664E-1],"split_indices":[0,2,0,3,4,3,3,3,4,0,3,0,2,2,0,3,2,0,3,3,0,0,2,2,0,0,3,0,2,3,0,2,0,3,0,2,0,3,3,3,3,3,0,3,3,4,3,0,3,4,0,0,0,4,0,0,0,2,0,4,0,0,0,0,0,0,0,0,0,0,0,0,0,0,0,0,0,0,0,0,0,0,0,0,0,0,0,0,0,0,0,0,0,0,0,0,0,0,0,0,0,0,0,0,0,0,0,0,0,0,0,0,0,0,0],"split_type":[0,0,0,0,0,0,0,0,0,0,0,0,0,0,0,0,0,0,0,0,0,0,0,0,0,0,0,0,0,0,0,0,0,0,0,0,0,0,0,0,0,0,0,0,0,0,0,0,0,0,0,0,0,0,0,0,0,0,0,0,0,0,0,0,0,0,0,0,0,0,0,0,0,0,0,0,0,0,0,0,0,0,0,0,0,0,0,0,0,0,0,0,0,0,0,0,0,0,0,0,0,0,0,0,0,0,0,0,0,0,0,0,0,0,0],"sum_hessian":[6.1573457E4,4.7114605E4,1.4458853E4,5.037198E3,4.2077406E4,6.8789897E3,7.579863E3,4.2788325E3,7.58366E2,4.505564E3,3.7571844E4,6.4612197E3,4.1777008E2,5.45583E3,2.1240325E3,2.523079E3,1.7557533E3,5.382443E2,2.2012167E2,4.0869978E3,4.1856595E2,3.0266223E4,7.30562E3,2.9378372E3,3.5233823E3,4.808839E1,3.696817E2,6.304456E2,4.825385E3,1.0039951E3,1.1200375E3,1.0310687E3,1.4920104E3,2.1860281E2,1.5371504E3,2.1297719E2,7.1444883E0,3.6946172E3,3.923806E2,1.9550987E2,2.2305609E2,2.7155264E4,3.1109604E3,4.1000767E3,3.2055432E3,2.5033892E3,4.34448E2,1.6309113E3,1.8924711E3,4.2753075E1,5.335316E0,3.2228455E2,4.739716E1,2.7503473E2,3.5541086E2,3.741897E3,1.0834877E3,8.184172E2,1.8557794E2,6.497159E2,4.7032153E2,8.771344E1,9.433552E2,1.4577836E3,3.422684E1,2.1046794E2,8.134873E0,1.4700833E3,6.7067154E1,6.4574375E0,2.0651974E2,1.845652E1,3.676161E3,1.5551044E2,2.3687016E2,1.8941566E2,6.0942125E0,2.163583E2,6.697778E0,1.1654176E2,2.703872E4,1.8194288E3,1.2915316E3,1.8740309E3,2.226046E3,5.781716E2,2.6273718E3,2.9969547E2,2.2036938E3,4.2697302E2,7.474981E0,3.8553085E2,1.2453804E3,1.8139685E3,7.850252E1,2.9082687E1,1.3670386E1,1.4401543E2,1.7826912E2,9.395085E1,1.8108388E2,1.6110822E2,1.9430263E2,1.299481E3,2.442416E3,4.247083E2,6.5877936E2,1.5921648E2,6.592007E2,1.3774593E2,4.7832012E1,1.2116069E2,5.285552E2,3.9476898E2,7.555257E1],"tree_param":{"num_deleted":"0","num_feature":"6","num_nodes":"115","size_leaf_vector":"1"}},{"base_weights":[4.326962E-3,-3.9635998E-1,5.502307E-2,-5.660117E-1,4.075878E-1,4.6044174E-1,8.763786E-3,-4.238801E-1,-7.530412E-1,-3.332788E-1,4.4250247E-1,-1.1538823E-1,4.6661305E-1,3.652242E-2,-1.3963483E-1,-6.659681E-1,-2.9184937E-2,-1.0285205E0,-7.072791E-1,4.911629E-2,-8.722863E-2,4.704464E-2,3.694003E-2,4.5209473E-1,8.97867E-2,-8.2282625E-2,3.9542105E-2,-7.703277E-1,4.2273335E-2,-1.2188572E-1,-6.2021106E-1,-1.0672368E0,1.3019005E-2,-6.6531324E-1,-9.5610714E-1,4.7418043E-1,1.434465E-1,3.7226487E-2,4.710686E-1,-8.032501E-1,-5.98404E-1,-1.4998642E-1,2.1888892E-1,-4.5482498E-2,-6.806105E-2,-1.0097414E-1,-1.18833385E-1,-5.6397583E-2,-6.776782E-2,-2.5023997E-2,-9.8784946E-2,4.891237E-2,1.7297333E-2,-8.638243E-3,3.9381124E-2,4.916742E-3,-6.710226E-3,3.4923411E-3,5.128639E-2,-8.146446E-2,-4.8806097E-2,-6.1061203E-2,-2.8838575E-2,-2.255546E-2,7.114374E-2,2.3876997E-2,-6.270508E-2],"categories":[],"categories_nodes":[],"categories_segments":[],"categories_sizes":[],"default_left":[0,0,0,0,0,0,0,0,0,0,0,0,0,0,0,0,0,0,0,0,0,0,0,0,0,0,0,0,0,0,0,0,0,0,0,0,0,0,0,0,0,0,0,0,0,0,0,0,0,0,0,0,0,0,0,0,0,0,0,0,0,0,0,0,0,0,0],"id":14,"left_children":[1,3,5,7,9,11,13,15,17,19,21,-1,23,25,27,29,-1,31,33,-1,-1,-1,-1,35,-1,-1,37,39,41,-1,43,45,-1,47,49,51,53,55,57,59,61,63,65,-1,-1,-1,-1,-1,-1,-1,-1,-1,-1,-1,-1,-1,-1,-1,-1,-1,-1,-1,-1,-1,-1,-1,-1],"loss_changes":[1.2319211E3,9.292372E2,1.00963245E3,1.4920569E2,3.0863953E1,5.5467163E1,1.9906067E2,1.02034424E2,2.9875122E1,2.4430983E1,2.143631E0,0E0,3.3987793E1,1.0566943E2,8.736593E2,2.7779541E1,0E0,1.5553619E1,2.1135254E1,0E0,0E0,0E0,0E0,3.617212E1,0E0,0E0,4.051889E1,9.168091E0,2.0074948E2,0E0,1.0116913E1,1.1158752E0,0E0,1.8573608E0,6.4431458E0,2.2244629E1,2.0544483E1,5.0272354E1,3.9275055E0,4.7302246E0,8.7566376E-1,1.8443369E2,5.19713E1,0E0,0E0,0E0,0E0,0E0,0E0,0E0,0E0,0E0,0E0,0E0,0E0,0E0,0E0,0E0,0E0,0E0,0E0,0E0,0E0,0E0,0E0,0E0,0E0],"parents":[2147483647,0,0,1,1,2,2,3,3,4,4,5,5,6,6,7,7,8,8,9,9,10,10,12,12,13,13,14,14,15,15,17,17,18,18,23,23,26,26,27,27,28,28,30,30,31,31,33,33,34,34,35,35,36,36,37,37,38,38,39,39,40,40,41,41,42,42],"right_children":[2,4,6,8,10,12,14,16,18,20,22,-1,24,26,28,30,-1,32,34,-1,-1,-1,-1,36,-1,-1,38,40,42,-1,44,46,-1,48,50,52,54,56,58,60,62,64,66,-1,-1,-1,-1,-1,-1,-1,-1,-1,-1,-1,-1,-1,-1,-1,-1,-1,-1,-1,-1,-1,-1,-1,-1],"split_conditions":[5E0,1.1E1,1E0,2E0,4E0,1E0,3E0,1E0,4E0,1E0,1E0,-1.1538823E-1,8E0,1E0,5E0,3E0,-2.9184937E-2,7E0,6E0,4.911629E-2,-8.722863E-2,4.704464E-2,3.694003E-2,2E0,8.97867E-2,-8.2282625E-2,7E0,6E0,6E0,-1.2188572E-1,1E0,4E0,1.3019005E-2,1E0,1E0,6E0,4E0,6E0,2E0,4E0,7E0,1.1E1,1.2E1,-4.5482498E-2,-6.806105E-2,-1.0097414E-1,-1.18833385E-1,-5.6397583E-2,-6.776782E-2,-2.5023997E-2,-9.8784946E-2,4.891237E-2,1.7297333E-2,-8.638243E-3,3.9381124E-2,4.916742E-3,-6.710226E-3,3.4923411E-3,5.128639E-2,-8.146446E-2,-4.8806097E-2,-6.1061203E-2,-2.8838575E-2,-2.255546E-2,7.114374E-2,2.3876997E-2,-6.270508E-2],"split_indices":[2,3,4,3,2,3,3,3,2,4,4,0,3,3,3,2,0,3,3,0,0,0,0,3,0,0,2,2,2,0,4,3,0,4,4,2,3,2,3,3,2,3,3,0,0,0,0,0,0,0,0,0,0,0,0,0,0,0,0,0,0,0,0,0,0,0,0],"split_type":[0,0,0,0,0,0,0,0,0,0,0,0,0,0,0,0,0,0,0,0,0,0,0,0,0,0,0,0,0,0,0,0,0,0,0,0,0,0,0,0,0,0,0,0,0,0,0,0,0,0,0,0,0,0,0,0,0,0,0,0,0,0,0,0,0,0,0],"sum_hessian":[6.064406E4,6.8103403E3,5.383372E4,5.6238687E3,1.1864716E3,5.512545E3,4.832117E4,3.1973403E3,2.426528E3,5.3013535E1,1.133458E3,2.0285131E1,5.49226E3,4.0707418E4,7.613753E3,1.1269502E3,2.0703901E3,3.4260928E2,2.083919E3,2.099274E1,3.2020794E1,8.160726E2,3.1738547E2,5.3153647E3,1.7689536E2,1.4159131E2,4.056583E4,1.7036841E3,5.910069E3,8.417798E1,1.0427722E3,3.316081E2,1.1001182E1,1.7863223E3,2.9759665E2,4.9599155E3,3.554492E2,4.035039E4,2.1543834E2,1.4267897E3,2.7689447E2,2.8297822E3,3.0802864E3,2.8123148E2,7.615408E2,2.3118347E2,1.0042462E2,1.9932895E2,1.5869933E3,1.31890745E1,2.8440756E2,4.7248843E3,2.3503093E2,1.856666E2,1.697826E2,3.6206867E4,4.1435234E3,1.9000336E1,1.96438E2,1.3754796E3,5.1310047E1,2.65471E2,1.1423455E1,2.6022395E3,2.2754265E2,3.0102578E3,7.00285E1],"tree_param":{"num_deleted":"0","num_feature":"6","num_nodes":"67","size_leaf_vector":"1"}},{"base_weights":[2.2388422E-3,1.556753E-1,-4.9834234E-1,-3.6520264E-1,2.1730039E-1,-3.2283708E-1,-6.587596E-1,3.4933995E-2,-4.9200588E-1,6.989605E-1,1.6395928E-1,-2.528567E-1,-3.773534E-1,-3.250352E-1,-7.529393E-1,-1.3836712E-1,6.5452635E-2,-1.1772386E-1,-4.5930743E-1,7.58286E-1,1.3528317E-1,1.8056485E-1,-2.4672603E-2,-2.7745703E-1,-1.2498189E-1,-3.4056348E-1,-4.4501776E-1,4.1420662E-1,-5.968501E-1,-8.293987E-1,-5.2263135E-1,1.1172169E-1,-6.370299E-1,-4.5505822E-1,-1.6064379E-1,7.6152235E-1,-6.156258E-2,3.7728658E-1,-2.6199166E-2,1.6710684E-1,2.6432875E-1,4.2630132E-2,-8.403575E-2,-5.449644E-1,-2.6847965E-1,-7.2529934E-2,-4.6497732E-1,-3.4720105E-1,-1.6676466E-1,-8.4857273E-1,-4.2894405E-1,9.709564E-1,1.1910905E-1,-3.2167524E-1,-8.461689E-1,-7.1375513E-1,-8.751159E-1,-4.0123862E-1,-5.9226173E-1,8.957286E-3,8.6774014E-2,-1.8016605E-1,7.452149E-2,-4.6571966E-2,-7.922734E-3,7.663812E-2,5.730767E-2,1.844541E-2,3.9812505E-2,4.849124E-3,-2.1846509E-2,1.5426024E-2,2.7834252E-2,2.4123201E-2,4.1643403E-2,6.2056347E-3,-7.004951E-3,-9.291051E-3,8.167824E-3,-8.085247E-2,1.4469437E-2,-2.5086476E-2,-2.9751861E-2,-3.269967E-2,-3.4625982E-3,-3.2452755E-2,-5.882008E-2,-4.427762E-2,-3.375944E-2,8.762324E-3,-1.8895844E-2,-1.0086744E-1,-7.272702E-2,-4.5765232E-2,-3.1276066E-2,2.700615E-2,9.971938E-2,3.5317227E-2,-3.2900937E-2,3.8223367E-2,-4.9875695E-2,-9.339459E-2,-6.399423E-2,-7.676113E-2,-5.66508E-2,-8.941152E-2,-6.829155E-2,-1.7682832E-2,-4.11174E-2,-6.009155E-2,7.5743705E-2],"categories":[],"categories_nodes":[],"categories_segments":[],"categories_sizes":[],"default_left":[0,0,0,0,0,0,0,0,0,0,0,0,0,0,0,0,0,0,0,0,0,0,0,0,0,0,0,0,0,0,0,0,0,0,0,0,0,0,0,0,0,0,0,0,0,0,0,0,0,0,0,0,0,0,0,0,0,0,0,0,0,0,0,0,0,0,0,0,0,0,0,0,0,0,0,0,0,0,0,0,0,0,0,0,0,0,0,0,0,0,0,0,0,0,0,0,0,0,0,0,0,0,0,0,0,0,0,0,0,0,0],"id":15,"left_children":[1,3,5,7,9,11,13,15,17,19,21,23,25,27,29,-1,31,-1,33,35,37,39,41,43,45,47,49,51,53,55,57,59,61,63,-1,65,-1,67,69,71,73,75,77,79,81,83,85,87,89,91,93,95,97,99,101,103,105,107,109,-1,-1,-1,-1,-1,-1,-1,-1,-1,-1,-1,-1,-1,-1,-1,-1,-1,-1,-1,-1,-1,-1,-1,-1,-1,-1,-1,-1,-1,-1,-1,-1,-1,-1,-1,-1,-1,-1,-1,-1,-1,-1,-1,-1,-1,-1,-1,-1,-1,-1,-1,-1],"loss_changes":[4.622821E3,1.4787877E3,3.9733105E2,2.4731494E2,1.0582517E3,2.5637268E1,2.3159155E2,5.090921E1,8.238733E1,1.3723181E2,1.1617694E2,9.266174E0,9.281555E0,3.2681906E2,1.0085547E2,0E0,3.745117E1,0E0,1.6496216E1,1.698999E1,1.53403635E1,3.838257E1,1.1996048E1,5.8065033E0,8.505648E0,2.778778E0,8.272308E0,7.176777E1,8.128146E1,2.2197266E1,1.190332E1,1.800385E1,1.1598629E2,1.4077698E1,0E0,2.9550781E0,0E0,5.5771255E-1,3.4028773E0,4.1929016E1,1.647052E1,3.085084E0,2.353651E0,1.4570021E1,1.1531525E0,4.001381E0,9.135208E-1,2.0243225E0,5.3812146E-1,2.3699951E-1,4.1342773E0,2.5154266E0,3.0229261E1,7.0826126E1,1.0680725E1,9.306824E0,1.0670166E1,1.1015625E0,1.1091949E1,0E0,0E0,0E0,0E0,0E0,0E0,0E0,0E0,0E0,0E0,0E0,0E0,0E0,0E0,0E0,0E0,0E0,0E0,0E0,0E0,0E0,0E0,0E0,0E0,0E0,0E0,0E0,0E0,0E0,0E0,0E0,0E0,0E0,0E0,0E0,0E0,0E0,0E0,0E0,0E0,0E0,0E0,0E0,0E0,0E0,0E0,0E0,0E0,0E0,0E0,0E0,0E0],"parents":[2147483647,0,0,1,1,2,2,3,3,4,4,5,5,6,6,7,7,8,8,9,9,10,10,11,11,12,12,13,13,14,14,16,16,18,18,19,19,20,20,21,21,22,22,23,23,24,24,25,25,26,26,27,27,28,28,29,29,30,30,31,31,32,32,33,33,35,35,37,37,38,38,39,39,40,40,41,41,42,42,43,43,44,44,45,45,46,46,47,47,48,48,49,49,50,50,51,51,52,52,53,53,54,54,55,55,56,56,57,57,58,58],"right_children":[2,4,6,8,10,12,14,16,18,20,22,24,26,28,30,-1,32,-1,34,36,38,40,42,44,46,48,50,52,54,56,58,60,62,64,-1,66,-1,68,70,72,74,76,78,80,82,84,86,88,90,92,94,96,98,100,102,104,106,108,110,-1,-1,-1,-1,-1,-1,-1,-1,-1,-1,-1,-1,-1,-1,-1,-1,-1,-1,-1,-1,-1,-1,-1,-1,-1,-1,-1,-1,-1,-1,-1,-1,-1,-1,-1,-1,-1,-1,-1,-1,-1,-1,-1,-1,-1,-1,-1,-1,-1,-1,-1,-1],"split_conditions":[5.04E0,5E0,1.036E1,1E0,1E0,7.07E0,5E0,3E0,3E0,2.53E0,2.84E0,6E0,9.01E0,2.056E1,6E0,-1.3836712E-1,1.58E0,-1.1772386E-1,4.45E0,7E0,3.54E0,6E0,3.89E0,5E0,6.78E0,8.94E0,5E0,1E0,4.087E1,1.306E1,1.395E1,5E-2,3.19E0,1.76E0,-1.6064379E-1,1.89E0,-6.156258E-2,2.64E0,4.63E0,5E-2,7E0,6E0,4.98E0,6.5E0,6.3E0,5.24E0,6.92E0,7.23E0,1E0,9.73E0,6E0,1.117E1,1.664E1,1E0,7.22E1,1.22E1,4E1,1.049E1,7E0,8.957286E-3,8.6774014E-2,-1.8016605E-1,7.452149E-2,-4.6571966E-2,-7.922734E-3,7.663812E-2,5.730767E-2,1.844541E-2,3.9812505E-2,4.849124E-3,-2.1846509E-2,1.5426024E-2,2.7834252E-2,2.4123201E-2,4.1643403E-2,6.2056347E-3,-7.004951E-3,-9.291051E-3,8.167824E-3,-8.085247E-2,1.4469437E-2,-2.5086476E-2,-2.9751861E-2,-3.269967E-2,-3.4625982E-3,-3.2452755E-2,-5.882008E-2,-4.427762E-2,-3.375944E-2,8.762324E-3,-1.8895844E-2,-1.0086744E-1,-7.272702E-2,-4.5765232E-2,-3.1276066E-2,2.700615E-2,9.971938E-2,3.5317227E-2,-3.2900937E-2,3.8223367E-2,-4.9875695E-2,-9.339459E-2,-6.399423E-2,-7.676113E-2,-5.66508E-2,-8.941152E-2,-6.829155E-2,-1.7682832E-2,-4.11174E-2,-6.009155E-2,7.5743705E-2],"split_indices":[0,2,0,4,4,0,2,2,2,0,0,2,0,0,2,0,0,0,0,2,0,2,0,2,0,0,2,4,0,0,0,0,0,0,0,0,0,0,0,0,2,2,0,0,0,0,0,0,4,0,2,0,0,4,0,0,0,0,2,0,0,0,0,0,0,0,0,0,0,0,0,0,0,0,0,0,0,0,0,0,0,0,0,0,0,0,0,0,0,0,0,0,0,0,0,0,0,0,0,0,0,0,0,0,0,0,0,0,0,0,0],"split_type":[0,0,0,0,0,0,0,0,0,0,0,0,0,0,0,0,0,0,0,0,0,0,0,0,0,0,0,0,0,0,0,0,0,0,0,0,0,0,0,0,0,0,0,0,0,0,0,0,0,0,0,0,0,0,0,0,0,0,0,0,0,0,0,0,0,0,0,0,0,0,0,0,0,0,0,0,0,0,0,0,0,0,0,0,0,0,0,0,0,0,0,0,0,0,0,0,0,0,0,0,0,0,0,0,0,0,0,0,0,0,0],"sum_hessian":[6.018517E4,4.60659E4,1.4119275E4,4.872955E3,4.119294E4,6.7439917E3,7.3752837E3,1.1728062E3,3.700149E3,4.1058438E3,3.7087098E4,2.9556196E3,3.7883718E3,1.6242455E3,5.7510386E3,2.3765598E1,1.1490405E3,1.6693051E2,3.5332185E3,3.714552E3,3.912918E2,3.4086457E4,3.0006418E3,2.4777788E3,4.7784082E2,2.457975E3,1.3303967E3,4.3652518E2,1.1877203E3,4.315683E3,1.4353552E3,1.0788246E3,7.021589E1,3.5215706E3,1.1647914E1,3.7062673E3,8.284642E0,1.5606726E2,2.3522456E2,2.9370594E4,4.715862E3,1.4064109E3,1.5942311E3,7.8514175E1,2.3992646E3,4.150269E2,6.2813915E1,2.3665947E3,9.138052E1,4.8976364E1,1.2814203E3,1.5042796E2,2.860972E2,5.656732E2,6.220471E2,1.2274384E3,3.0882449E3,5.256702E2,9.0968506E2,1.0492048E3,2.9619732E1,3.7943012E1,3.2272873E1,3.424195E3,9.737541E1,3.610119E3,9.6148315E1,1.6181393E1,1.3988586E2,1.699508E2,6.527376E1,2.6331912E4,3.0386836E3,4.096418E3,6.194438E2,1.1999808E3,2.0643005E2,1.5136095E3,8.0621574E1,5.6680695E1,2.1833479E1,1.4993837E3,8.99881E2,5.281674E1,3.6221014E2,3.1053205E1,3.1760712E1,2.1203171E2,2.154563E3,7.0960917E0,8.428443E1,1.7958462E1,3.1017902E1,1.0251682E3,2.562521E2,5.8354373E0,1.4459251E2,1.8807362E2,9.8023575E1,1.1346912E2,4.5220407E2,4.3385507E2,1.8819203E2,8.956413E2,3.3179703E2,2.8071064E3,2.811384E2,2.3083406E1,5.025868E2,9.044409E2,5.244183E0],"tree_param":{"num_deleted":"0","num_feature":"6","num_nodes":"111","size_leaf_vector":"1"}},{"base_weights":[4.3754135E-3,1.3895027E-1,-4.6754062E-1,-3.3831537E-1,1.9438173E-1,-2.9383978E-1,-6.02602E-1,-5.2880436E-1,7.8653693E-1,2.615494E-1,-1.0467317E-1,-3.188145E-1,8.323439E-2,-7.412019E-1,-2.3574492E-1,-4.206338E-1,-6.945235E-1,8.134873E-1,-1.197703E-1,3.026522E-1,-3.8382804E-3,-4.5565268E-1,7.5793356E-2,-2.673297E-1,-3.7990957E-1,-7.207267E-1,1.9173972E-1,-1.04919426E-1,-8.221396E-1,-5.532242E-2,-6.711398E-1,-6.404217E-1,-2.8482324E-1,-1.0815876E0,-6.444085E-1,8.285837E-1,-2.3635065E-2,-9.426282E-1,3.0820906E-1,1.0949882E-1,-7.579925E-2,7.975204E-3,-7.9479057E-1,-9.2165194E-2,2.3135741E-1,7.095122E-2,-2.6982817E-1,-3.8958374E-1,-1.6765721E-1,-1.4238004E-1,-3.0615792E-1,8.0885395E-2,1.073513E0,5.832658E-1,-7.1002644E-1,-6.878005E-1,-9.4272554E-1,-1.8588522E-1,5.047678E-1,-6.131971E-1,-1.1564501E-1,-1.16568245E-1,-5.9894092E-2,-2.9887242E-2,2.1595955E-2,-1.1349281E-1,3.508739E-2,-6.2981024E-2,-7.360276E-2,-5.320073E-3,8.380257E-2,-9.627269E-2,-3.9990544E-2,3.1137858E-2,1.9490894E-2,1.2457314E-2,-4.8036058E-4,-2.4259393E-3,-1.4209159E-2,-1.9349596E-2,4.5967482E-2,-8.2669936E-2,-1.765718E-2,-1.922074E-2,7.116205E-2,2.539717E-2,-5.529633E-2,-4.155936E-2,-2.6047325E-2,-4.0695523E-3,-3.9553344E-2,-7.015266E-2,